%YAML:1.0
---
opencv_ml_svm:
   format: 3
   svmType: C_SVC
   kernel:
      type: RBF
      gamma: 5.0624999999999998e-01
   C: 1.2500000000000000e+01
   term_criteria: { epsilon:1.1920928955078125e-07, iterations:1000 }
   var_count: 144
   class_count: 25
   class_labels: !!opencv-matrix
      rows: 25
      cols: 1
      dt: i
      data: [ 0, 1, 2, 3, 4, 5, 7, 8, 9, 10, 11, 12, 13, 14, 15, 16, 17,
          18, 19, 20, 21, 22, 23, 24, 25 ]
   sv_total: 1125
   support_vectors:
      - [ 4.37220156e-01, 4.37220156e-01, 4.37220156e-01, 3.07114120e-03,
          0., 1.09540427e-03, 4.37220156e-01, 3.31813037e-01,
          3.47672820e-01, 3.66481036e-01, 1.59078673e-01, 1.73620418e-01,
          1.69182499e-03, 0., 8.78250692e-03, 5.79783142e-01,
          5.79783142e-01, 3.63421321e-01, 3.91377866e-01, 0., 0., 0., 0.,
          0., 7.84716368e-01, 2.61572123e-01, 3.91377866e-01, 0., 0., 0.,
          0., 0., 0., 0., 0., 0., 3.72215956e-01, 4.47985560e-01,
          4.47985560e-01, 3.56158227e-01, 2.37363447e-02, 3.36179435e-02,
          4.47985560e-01, 3.05036664e-01, 1.82530999e-01, 4.63013947e-01,
          6.77079782e-02, 8.54898021e-02, 3.32545154e-02, 3.47611129e-01,
          6.33668527e-02, 4.63013947e-01, 4.63013947e-01, 4.63013947e-01,
          6.29881978e-01, 2.69227987e-03, 0., 5.80918603e-02,
          4.43651229e-01, 0., 4.78105212e-04, 1.59368399e-04,
          6.29881978e-01, 6.59462869e-01, 0., 0., 2.98320502e-02,
          3.50347936e-01, 0., 0., 0., 6.59462869e-01, 6.19405806e-02,
          4.81646538e-01, 4.81646538e-01, 4.81646538e-01, 7.73747861e-02,
          2.06451371e-01, 4.81646538e-01, 1.14294656e-01, 4.17957045e-02,
          1.45888805e-01, 2.91165039e-02, 1.34090453e-01, 1.61674172e-01,
          4.99497175e-01, 4.99497175e-01, 4.99497175e-01, 2.18353853e-01,
          3.64129692e-01, 3.18984419e-01, 2.04101508e-03, 0.,
          5.54643929e-01, 5.67172825e-01, 0., 0., 0., 5.13094842e-01,
          5.04207611e-01, 0., 0., 2.39793196e-01, 6.46339357e-01, 0., 0.,
          0., 5.13873816e-01, 2.07439084e-02, 5.33733308e-01,
          5.33733308e-01, 1.23365648e-01, 4.59653698e-02, 2.26979926e-02,
          5.33733308e-01, 3.48768055e-01, 1.18087512e-02, 1.18038459e-02,
          1.03464425e-01, 2.30263531e-01, 4.81641740e-02, 1.49742305e-01,
          9.16614532e-02, 6.69425905e-01, 6.69425905e-01, 6.71949843e-03,
          0., 0., 0., 5.99467218e-01, 7.91617334e-01, 0., 7.39775077e-02,
          2.46591698e-02, 0., 0., 0., 0., 1.85366258e-01, 9.77694452e-01,
          0., 0., 0., 0. ]
      - [ 6.93917215e-01, 5.06626554e-02, 6.44099563e-02, 0., 0., 0., 0.,
          1.52693480e-01, 6.93917215e-01, 6.65109158e-01, 0., 0., 0., 0.,
          0., 0., 3.29574913e-01, 6.65109158e-01, 6.92242682e-01, 0., 0.,
          0., 0., 0., 0., 0., 6.92242682e-01, 0., 0., 0., 0., 0., 0., 0.,
          0., 0., 4.77644980e-01, 1.71235040e-01, 1.07200876e-01,
          4.77644980e-01, 4.77644980e-01, 0., 0., 2.04540789e-01,
          4.77644980e-01, 4.39414501e-01, 1.84914067e-01, 2.06071138e-01,
          4.12654370e-01, 2.45916754e-01, 3.29337507e-01, 2.17930097e-02,
          4.39414501e-01, 4.39414501e-01, 5.64762592e-01, 0.,
          2.76002148e-03, 1.31635088e-02, 5.64762592e-01, 1.91087961e-01,
          4.04467434e-03, 2.78948955e-02, 5.64762592e-01, 5.59620559e-01,
          0., 0., 2.34264940e-01, 5.59620559e-01, 2.44529708e-03, 0., 0.,
          5.59620559e-01, 4.44956869e-01, 4.44956869e-01, 3.37623686e-01,
          2.69061118e-01, 4.44956869e-01, 4.44956869e-01, 1.30832955e-01,
          6.81096641e-03, 7.84546323e-03, 4.16252285e-01, 5.04577816e-01,
          1.70590550e-01, 1.76117569e-01, 3.77988398e-01, 5.43585420e-01,
          2.01241121e-01, 3.84870209e-02, 1.62014484e-01, 3.68878663e-01,
          0., 4.38744016e-03, 2.09252387e-02, 6.09067678e-01,
          6.09067678e-01, 3.92244458e-02, 3.04673822e-03, 3.37513328e-01,
          3.06235671e-01, 0., 0., 4.90841150e-01, 6.62818670e-01,
          4.06202348e-03, 0., 0., 4.68329459e-01, 1.90618992e-01,
          4.77281153e-01, 4.77281153e-01, 1.34078130e-01, 4.77281153e-01,
          4.77281153e-01, 1.72427297e-01, 0., 0., 7.22841322e-02,
          1.16462246e-01, 0., 3.58635560e-02, 6.52684331e-01,
          6.52684331e-01, 3.48447412e-01, 0., 0., 0., 0., 0., 0.,
          3.04790705e-01, 9.32759523e-01, 1.43895894e-01, 0., 0., 0., 0.,
          0., 0., 9.83572841e-01, 0., 0., 0., 0. ]
      - [ 7.04615593e-01, 0., 0., 0., 0., 0., 0., 0., 7.04615593e-01,
          7.04615593e-01, 0., 0., 0., 0., 0., 0., 0., 7.04615593e-01,
          7.04615593e-01, 0., 0., 0., 0., 0., 0., 0., 7.04615593e-01,
          7.04615593e-01, 0., 0., 0., 0., 0., 0., 0., 7.04615593e-01,
          4.96191263e-01, 9.75953266e-02, 0., 0., 4.96191263e-01,
          4.96191263e-01, 0., 2.63883770e-02, 4.96191263e-01,
          4.10666764e-01, 7.44409636e-02, 2.56808978e-02, 0.,
          4.10666764e-01, 4.10666764e-01, 4.04816210e-01, 3.88885021e-01,
          4.10666764e-01, 4.16882128e-01, 3.67714435e-01, 7.10429773e-02,
          0., 3.96606147e-01, 5.58143146e-02, 4.16882128e-01,
          4.16882128e-01, 4.16882128e-01, 4.39887285e-01, 4.39887285e-01,
          4.39887285e-01, 0., 0., 8.32745247e-03, 4.04472649e-01,
          2.40697071e-01, 4.39887285e-01, 3.86786193e-01, 2.32810583e-02,
          0., 0., 6.48735225e-01, 6.48735225e-01, 0., 6.28991285e-03,
          4.02892232e-02, 1.83490202e-01, 4.77503985e-01, 4.77503985e-01,
          1.73344210e-01, 4.77503985e-01, 4.77503985e-01, 9.60519984e-02,
          9.22719762e-02, 4.16357815e-02, 3.48234862e-01, 3.48234862e-01,
          3.48234862e-01, 2.93280989e-01, 3.48234862e-01, 3.48234862e-01,
          3.48234862e-01, 3.48234862e-01, 2.48262852e-01, 1.67948287e-02,
          5.29125631e-01, 5.29125631e-01, 7.90775791e-02, 8.84802788e-02,
          3.62978518e-01, 5.29125631e-01, 8.82629976e-02, 2.97663808e-02,
          0., 0., 0., 0., 9.54357743e-01, 0., 0., 0., 0., 0.,
          6.75010607e-02, 6.87039554e-01, 2.11041600e-01, 6.87039554e-01,
          0., 0., 0., 0., 0., 3.01446289e-01, 5.50039232e-01,
          2.24698693e-01, 5.50039232e-01, 4.74761397e-01, 1.50489151e-01,
          4.00561374e-03, 0., 0., 4.21621084e-01, 4.21621084e-01,
          4.21621084e-01, 4.21621084e-01, 4.21621084e-01, 3.27056706e-01,
          6.61991769e-04, 0. ]
      - [ 6.50093436e-01, 6.19791329e-01, 0., 0., 6.52929544e-02,
          1.97486788e-01, 0., 0., 3.78791213e-01, 5.80450535e-01,
          4.07630652e-01, 6.26233220e-02, 4.57783565e-02, 3.30982447e-01,
          5.33805370e-01, 0., 0., 3.01004201e-01, 5.38610280e-01,
          2.55055159e-01, 1.86773896e-01, 1.34239793e-01, 3.37907284e-01,
          3.62040073e-01, 1.40754268e-01, 1.77186549e-01, 5.38610280e-01,
          4.33656126e-01, 8.35514802e-04, 2.09811633e-03, 4.94941473e-01,
          3.90504777e-01, 1.25238135e-01, 4.10633087e-02, 2.62251943e-01,
          5.68029106e-01, 4.07158583e-01, 4.07158583e-01, 3.08332476e-03,
          8.71139243e-02, 4.07158583e-01, 4.07158583e-01, 2.82091141e-01,
          2.82609761e-01, 4.07158583e-01, 4.32375818e-01, 4.32375818e-01,
          4.32375818e-01, 2.97695026e-02, 4.32375818e-01, 4.32375818e-01,
          1.93720101e-04, 3.53867561e-02, 2.42483348e-01, 9.45753828e-02,
          4.63696718e-01, 4.63696718e-01, 8.94491896e-02, 3.25087190e-01,
          4.63696718e-01, 4.63696718e-01, 9.25951004e-02, 6.40985519e-02,
          4.80606034e-02, 3.05437221e-04, 2.91201216e-03, 4.68069643e-01,
          4.68069643e-01, 3.26904416e-01, 4.68069643e-01, 9.89089310e-02,
          4.68069643e-01, 3.53205912e-02, 2.98889130e-02, 1.41299060e-02,
          5.00623882e-01, 5.00623882e-01, 9.67731550e-02, 9.76492465e-02,
          4.71048087e-01, 5.00623882e-01, 3.83245379e-01, 3.66903186e-01,
          3.83245379e-01, 3.83245379e-01, 3.81358892e-01, 1.74076501e-02,
          2.94562075e-02, 3.56987238e-01, 3.83245379e-01, 1.82506293e-01,
          3.93866867e-01, 4.47589785e-01, 6.73208907e-02, 2.08794586e-02,
          2.78388169e-02, 4.47589785e-01, 4.47589785e-01, 4.47589785e-01,
          3.16886365e-01, 0., 0., 2.91962083e-02, 1.49984732e-01,
          3.10324132e-02, 5.38483799e-01, 5.38483799e-01, 5.38483799e-01,
          0., 0., 0., 7.02453613e-01, 7.02453613e-01, 0., 0.,
          1.82917733e-02, 7.59674907e-02, 1.00534014e-01, 6.33634180e-02,
          5.58243096e-01, 5.58243096e-01, 5.58243096e-01, 5.04346453e-02,
          2.17528883e-02, 5.17606512e-02, 1.99251920e-01, 4.09587994e-02,
          2.84997765e-02, 4.01180953e-01, 4.01180953e-01, 4.01180953e-01,
          4.01180953e-01, 2.04080820e-01, 3.83565694e-01, 4.01180953e-01,
          8.24845135e-02, 0., 0., 4.23857510e-01, 4.23857510e-01,
          3.01141709e-01, 4.23857510e-01, 4.23857510e-01, 4.23857510e-01 ]
      - [ 5.57186067e-01, 1.77039519e-01, 0., 1.53224811e-01,
          5.15802801e-01, 2.25479588e-01, 1.02647506e-02, 4.12733518e-02,
          5.57186067e-01, 4.75074500e-01, 0., 0., 2.58998215e-01,
          1.24709308e-01, 1.81464497e-02, 1.73093602e-02, 5.85319698e-01,
          5.85319698e-01, 1.13720760e-01, 3.06730837e-01, 5.27820110e-01,
          2.25862131e-01, 4.38554765e-04, 0., 3.02733481e-02,
          5.27820110e-01, 5.27820110e-01, 4.30230916e-01, 4.30230916e-01,
          4.30230916e-01, 4.30230916e-01, 0., 0., 0., 2.64969945e-01,
          4.30230916e-01, 4.13161039e-01, 1.19745515e-01, 0.,
          4.13161039e-01, 4.13161039e-01, 4.13161039e-01, 4.13161039e-01,
          1.75465211e-01, 3.11826140e-01, 2.73775104e-02, 5.22682518e-02,
          4.58818972e-01, 4.58818972e-01, 3.84595245e-01, 1.81596484e-02,
          4.04088795e-02, 4.58818972e-01, 4.58818972e-01, 2.55156886e-02,
          4.78162579e-02, 2.98905432e-01, 2.05077052e-01, 5.97550767e-03,
          2.24402770e-02, 5.35342872e-01, 5.35342872e-01, 5.35342872e-01,
          4.15188432e-01, 5.09016454e-01, 5.09016454e-01, 5.09016454e-01,
          1.25064850e-01, 8.55529085e-02, 7.72261098e-02, 5.87314479e-02,
          1.13437831e-01, 1.25954277e-03, 0., 3.80599312e-02,
          1.89135253e-01, 4.05034184e-01, 3.25591952e-01, 5.79558313e-01,
          5.79558313e-01, 1.23093650e-01, 0., 5.46483994e-01,
          5.46483994e-01, 5.46483994e-01, 1.02252826e-01, 2.26243064e-02,
          2.35632494e-01, 1.70603454e-01, 5.48875555e-02, 3.75897855e-01,
          3.58620346e-01, 3.75897855e-01, 1.48690909e-01, 2.64834464e-01,
          2.62476027e-01, 3.75897855e-01, 3.75897855e-01, 3.75897855e-01,
          5.12952745e-01, 5.12952745e-01, 2.76034586e-02, 0.,
          3.15694243e-01, 5.12952745e-01, 3.21776420e-01, 2.88194213e-02,
          2.68378705e-02, 0., 0., 2.87476629e-02, 2.74426371e-01,
          4.79192346e-01, 4.79192346e-01, 4.79192346e-01, 4.79192346e-01,
          2.40055136e-02, 0., 3.83274615e-01, 5.30693471e-01,
          5.30693471e-01, 5.30693471e-01, 3.09225218e-03, 3.15874666e-02,
          3.64138447e-02, 2.36810613e-02, 2.97073543e-01, 5.79278022e-02,
          1.45450041e-01, 4.39123213e-01, 5.75380862e-01, 5.75380862e-01,
          3.91566716e-02, 9.50128958e-02, 1.26389697e-01, 2.81840175e-01,
          1.13237210e-01, 0., 0., 6.65688157e-01, 6.65688157e-01,
          1.20642319e-01, 9.20937769e-03, 1.33026596e-02 ]
      - [ 0., 4.06129705e-03, 1.21838916e-02, 6.73291802e-01,
          6.73291802e-01, 0., 1.05007038e-01, 1.65552348e-01,
          2.19170615e-01, 2.34972369e-02, 0., 0., 5.48024356e-01,
          5.48024356e-01, 0., 1.15054324e-02, 3.04713964e-01,
          5.48024356e-01, 1.16504967e-01, 1.35295000e-02, 1.02900881e-02,
          5.33791661e-01, 5.33791661e-01, 1.11617977e-02, 5.24371071e-03,
          3.54759216e-01, 5.33791661e-01, 1.08662486e-01, 5.51345795e-02,
          1.57917082e-01, 4.40846264e-01, 9.59551260e-02, 1.81447528e-02,
          6.60875365e-02, 6.10683143e-01, 6.10683143e-01, 6.41264796e-01,
          2.88681835e-01, 7.70291314e-02, 1.94555581e-01, 2.09698513e-01,
          5.29867550e-03, 0., 5.69535373e-03, 6.41264796e-01,
          6.52728021e-01, 3.15086842e-02, 1.19155655e-02, 1.85213894e-01,
          3.17009836e-01, 6.58766180e-02, 2.68484578e-02, 1.95170399e-02,
          6.52728021e-01, 4.75339323e-01, 7.37501606e-02, 4.81221825e-02,
          4.75339323e-01, 4.75339323e-01, 2.69865483e-01, 5.72253391e-02,
          8.72094184e-02, 4.75339323e-01, 3.89188617e-01, 1.79317534e-01,
          3.89188617e-01, 3.46870542e-01, 3.89188617e-01, 3.89188617e-01,
          2.11869061e-01, 2.03495920e-01, 3.89188617e-01, 4.98182446e-01,
          1.63776726e-01, 1.31071687e-01, 4.98182446e-01, 4.98182446e-01,
          1.25013655e-02, 0., 3.50524415e-03, 4.54198182e-01,
          5.19104958e-01, 2.83787083e-02, 1.58358812e-02, 5.19104958e-01,
          5.19104958e-01, 2.08742276e-01, 9.90442559e-02, 2.20040735e-02,
          3.62605125e-01, 3.77753943e-01, 2.18352243e-01, 1.05818443e-01,
          3.77753943e-01, 3.77753943e-01, 3.77753943e-01, 2.84890294e-01,
          3.77753943e-01, 3.77753943e-01, 3.68966252e-01, 8.56278986e-02,
          1.62335694e-01, 9.98051763e-02, 4.54632014e-01, 4.54632014e-01,
          1.04411900e-01, 4.29771960e-01, 4.54632014e-01, 5.23996413e-01,
          0., 0., 4.53853086e-02, 5.23996413e-01, 4.11082357e-01,
          1.28999550e-03, 0., 5.23996413e-01, 5.15344739e-01,
          3.58880311e-02, 2.97607505e-04, 1.44260436e-01, 5.15344739e-01,
          5.15344739e-01, 2.42313910e-02, 0., 4.18839276e-01,
          5.43337345e-01, 2.57816225e-01, 7.66454190e-02, 1.52788863e-01,
          5.43337345e-01, 5.43337345e-01, 1.41441980e-02, 1.17079644e-02,
          1.13587581e-01, 1.45817459e-01, 1.33582741e-01, 2.29161158e-01,
          8.33812952e-02, 5.75209260e-01, 5.75209260e-01, 1.44836068e-01,
          1.15075424e-01, 4.46912348e-01 ]
      - [ 6.31424248e-01, 9.64989141e-02, 5.87150222e-03, 1.25697896e-01,
          3.97762448e-01, 4.03481796e-02, 0., 1.06363527e-01,
          6.31424248e-01, 6.74299836e-01, 1.10728391e-01, 0.,
          3.51544023e-02, 2.34828353e-01, 1.10282853e-01, 4.77109775e-02,
          2.87817996e-02, 6.74299836e-01, 5.64238787e-01, 6.08978840e-03,
          0., 3.77611853e-02, 5.64238787e-01, 1.94108590e-01,
          1.09494869e-02, 2.90165516e-03, 5.64238787e-01, 5.68083942e-01,
          0., 0., 1.56920657e-01, 5.68083942e-01, 1.58101358e-02, 0.,
          3.59894298e-02, 5.68083942e-01, 4.95774478e-01, 7.07867146e-02,
          7.60523453e-02, 4.61123705e-01, 4.95774478e-01, 1.83576450e-01,
          0., 2.32646894e-02, 4.95774478e-01, 3.71870577e-01,
          2.29361981e-01, 3.71870577e-01, 3.71870577e-01, 3.71870577e-01,
          3.71870577e-01, 3.71870577e-01, 2.35243335e-01, 2.42099509e-01,
          4.61340517e-01, 1.43792927e-02, 8.25526789e-02, 1.08209334e-01,
          4.61340517e-01, 4.61340517e-01, 4.61340517e-01, 2.54413694e-01,
          2.46159062e-01, 2.49960855e-01, 0., 0., 5.61468661e-01,
          5.95969200e-01, 3.27715613e-02, 0., 1.03099421e-02,
          5.09864926e-01, 4.24335688e-01, 1.96345106e-01, 4.24335688e-01,
          4.24335688e-01, 2.38317713e-01, 1.05190193e-02, 0.,
          4.24335688e-01, 4.24335688e-01, 2.72226453e-01, 4.14683163e-01,
          4.22445446e-01, 1.75071403e-01, 3.93164717e-02, 6.06156215e-02,
          4.22445446e-01, 4.22445446e-01, 4.22445446e-01, 4.85235602e-01,
          3.77244465e-02, 2.02191308e-01, 7.78554613e-03, 4.64077629e-02,
          9.39166769e-02, 4.85235602e-01, 4.85235602e-01, 4.85235602e-01,
          6.35469913e-01, 0., 0., 0., 3.21730733e-01, 0., 4.96151224e-02,
          2.82911658e-01, 6.35469913e-01, 6.31369427e-02, 2.47598924e-02,
          2.43564889e-01, 5.95424473e-01, 5.95424473e-01, 0., 0.,
          2.51195252e-01, 3.97456557e-01, 3.14086080e-01, 1.02050059e-01,
          1.81599930e-01, 5.08742571e-01, 5.08742571e-01, 4.31329086e-02,
          1.56039476e-01, 2.24076688e-01, 5.08742571e-01, 5.57470024e-01,
          5.56337787e-03, 9.08129849e-03, 1.76368013e-01, 5.57470024e-01,
          1.68695804e-02, 1.24762669e-01, 1.22658662e-01, 5.57470024e-01,
          4.64420229e-01, 0., 0., 5.93192969e-03, 4.64420229e-01,
          2.83755779e-01, 4.52865988e-01, 2.50325084e-01, 4.64420229e-01 ]
      - [ 6.63968742e-01, 3.03341806e-01, 0., 0., 0., 0., 0.,
          1.40165046e-01, 6.63968742e-01, 5.75686634e-01, 2.48982827e-03,
          0., 0., 0., 0., 0., 5.75686634e-01, 5.75686634e-01, 0., 0., 0.,
          0., 0., 0., 0., 5.76361306e-02, 9.84577179e-01, 5.06491661e-01,
          5.06491661e-01, 4.74700034e-01, 0., 0., 0., 0., 0.,
          5.06491661e-01, 3.96404952e-01, 3.96404952e-01, 4.17566299e-02,
          3.96404952e-01, 3.96404952e-01, 3.96404952e-01, 1.70010522e-01,
          1.50237516e-01, 3.96404952e-01, 1.60032734e-01, 1.13235565e-03,
          1.49983138e-01, 5.58506608e-01, 9.68301073e-02, 1.85987614e-02,
          2.83781365e-02, 5.58506608e-01, 5.58506608e-01, 1.15821213e-01,
          5.76300509e-02, 1.19569432e-02, 1.64353717e-02, 0., 0.,
          2.19577610e-01, 6.81115806e-01, 6.81115806e-01, 5.49361587e-01,
          5.49361587e-01, 5.49361587e-01, 0., 1.29707932e-01,
          5.84569648e-02, 1.56511031e-02, 0., 2.61979550e-01,
          1.07761621e-01, 1.92479581e-01, 2.96405524e-01, 4.87278610e-01,
          3.75853181e-01, 4.87278610e-01, 4.87278610e-01, 4.42367904e-02,
          5.54259270e-02, 6.74285414e-03, 2.88800653e-02, 5.20722747e-01,
          5.20722747e-01, 2.46695131e-01, 7.65743153e-03, 8.37945379e-03,
          5.20722747e-01, 3.45653355e-01, 4.39207613e-01, 1.78368554e-01,
          5.54042459e-02, 3.98731619e-01, 4.39207613e-01, 1.73352599e-01,
          8.74509476e-03, 4.39207613e-01, 4.39207613e-01, 5.01696646e-01,
          5.01696646e-01, 1.14689738e-01, 1.78561290e-03, 4.45684552e-01,
          5.01696646e-01, 8.72206166e-02, 0., 1.43148735e-01, 0.,
          7.23759383e-02, 2.99166828e-01, 1.42039374e-01, 5.72292507e-01,
          5.72292507e-01, 4.71322417e-01, 4.67841439e-02, 0.,
          1.01192417e-02, 4.33413386e-02, 4.54185903e-01, 6.22681081e-01,
          6.22681081e-01, 0., 0., 7.21296817e-02, 6.96494281e-02,
          2.21808404e-01, 2.03720797e-02, 1.04839802e-02, 5.73177099e-01,
          6.24026120e-01, 3.16590756e-01, 0., 6.12172335e-02,
          3.49468082e-01, 2.59244263e-01, 1.20423503e-01, 0.,
          7.64044002e-03, 6.71921849e-01, 6.71921849e-01, 1.44337434e-02,
          0., 9.14229676e-02 ]
      - [ 5.89372933e-01, 5.89372933e-01, 3.90331261e-02, 0.,
          9.92500409e-03, 5.41390896e-01, 5.43513000e-02, 0.,
          4.13994230e-02, 5.60371339e-01, 5.60371339e-01, 4.69434336e-02,
          0., 1.88155681e-01, 5.60371339e-01, 9.22262147e-02, 0.,
          7.90184587e-02, 3.64322335e-01, 3.64322335e-01, 3.64322335e-01,
          1.14007823e-01, 3.64322335e-01, 3.64322335e-01, 3.16949219e-01,
          3.64322335e-01, 2.94144511e-01, 9.07682478e-02, 2.11766630e-01,
          2.98374385e-01, 6.13825284e-02, 6.71987459e-02, 6.13180455e-04,
          6.23000503e-01, 6.23000503e-01, 2.59085566e-01, 4.97320741e-01,
          4.97320741e-01, 7.48038888e-02, 0., 4.22391528e-03,
          4.97320741e-01, 4.97320741e-01, 1.03200888e-02, 1.13696896e-03,
          4.37368035e-01, 5.13804138e-01, 3.01474571e-01, 0.,
          1.19859092e-01, 5.13804138e-01, 2.98113078e-01, 5.04049771e-02,
          2.80933112e-01, 3.29212725e-01, 3.94572318e-01, 3.94572318e-01,
          3.94572318e-01, 3.94572318e-01, 2.58407325e-01, 2.75569230e-01,
          2.44798064e-01, 2.49577820e-01, 4.59159911e-02, 2.88390666e-01,
          3.46474260e-01, 1.59693077e-01, 1.76062211e-01, 4.94085163e-01,
          4.94085163e-01, 4.94085163e-01, 2.97161583e-02, 3.45750779e-01,
          3.45750779e-01, 3.45750779e-01, 3.45750779e-01, 2.00491145e-01,
          3.45750779e-01, 3.45750779e-01, 3.45750779e-01, 3.45750779e-01,
          3.94002646e-01, 3.94002646e-01, 3.94002646e-01, 1.72020271e-01,
          3.94002646e-01, 3.94002646e-01, 8.13711509e-02, 1.68591321e-01,
          3.94002646e-01, 3.71573657e-01, 3.71573657e-01, 2.02203766e-01,
          2.29976147e-01, 2.72232383e-01, 3.71573657e-01, 3.71573657e-01,
          3.71573657e-01, 3.71573657e-01, 1.60225824e-01, 3.20348918e-01,
          8.77580047e-02, 8.70748702e-03, 1.01444088e-01, 5.85186362e-01,
          5.85186362e-01, 3.65900785e-01, 1.70362324e-01, 2.43571565e-01,
          4.64868546e-02, 1.93748415e-01, 5.70347011e-01, 5.70347011e-01,
          3.20523441e-01, 1.05971238e-02, 1.94569007e-01, 3.22462499e-01,
          4.33853716e-01, 9.58576575e-02, 2.95126796e-01, 4.83103126e-01,
          4.83103126e-01, 4.83103126e-01, 1.67263057e-02, 1.91468541e-02,
          9.92221236e-02, 2.55381614e-02, 3.31346244e-02, 4.84584242e-01,
          4.84584242e-01, 1.53460085e-01, 1.13642842e-01, 1.32882401e-01,
          4.84584242e-01, 4.84584242e-01, 6.40886426e-02, 3.38382907e-02,
          1.34445056e-01, 4.82288837e-01, 1.67837199e-02, 3.90938856e-02,
          4.91270304e-01, 4.97965664e-01, 4.97965664e-01 ]
      - [ 6.15152717e-01, 5.02266437e-02, 3.23668122e-01, 0., 0., 0., 0.,
          3.60206127e-01, 6.15152717e-01, 6.93800688e-01, 0., 0., 0., 0.,
          0., 0., 1.74227417e-01, 6.93800688e-01, 7.03837097e-01, 0., 0.,
          0., 0., 0., 0., 0., 7.03837097e-01, 0., 0., 0., 0., 0., 0., 0.,
          0., 0., 2.62421012e-01, 4.32913229e-02, 3.24474603e-01,
          4.72771078e-01, 4.72771078e-01, 0., 0., 3.85639161e-01,
          4.72771078e-01, 4.41722840e-01, 7.52426535e-02, 1.17617451e-01,
          4.41722840e-01, 4.41722840e-01, 5.17133577e-03, 2.16848813e-02,
          4.41722840e-01, 4.41722840e-01, 5.47197521e-01, 1.27508447e-01,
          1.26926571e-01, 1.51764959e-01, 7.68924803e-02, 1.85170591e-01,
          2.56540719e-02, 5.47197521e-01, 5.47197521e-01, 5.24418771e-01,
          2.39347056e-01, 0., 0., 4.44089502e-01, 4.36149627e-01,
          7.95624044e-04, 1.72904634e-03, 5.24418771e-01, 4.44799274e-01,
          4.35908467e-01, 4.44799274e-01, 2.82617271e-01, 4.44799274e-01,
          2.70990819e-01, 0., 1.53899554e-03, 2.42261469e-01,
          4.21563059e-01, 4.21563059e-01, 1.73045903e-01, 4.21563059e-01,
          4.21563059e-01, 4.21563059e-01, 4.22769748e-02, 7.88729191e-02,
          2.63170242e-01, 4.21631694e-01, 1.40166119e-01, 1.25431761e-01,
          2.18258381e-01, 4.82055902e-01, 4.82055902e-01, 3.67108136e-02,
          1.89510271e-01, 4.82055902e-01, 5.65271497e-01, 1.23099782e-01,
          0., 0., 5.65271497e-01, 5.65271497e-01, 3.50730517e-03,
          5.23701543e-04, 1.43505067e-01, 3.61778855e-01, 2.27799907e-01,
          6.04231477e-01, 0., 6.04231477e-01, 2.84293294e-01, 0., 0.,
          1.32726869e-02, 2.02694446e-01, 9.25668404e-02, 2.80110762e-02,
          0., 6.86438501e-01, 6.86438501e-01, 1.77037939e-02, 0., 0., 0.,
          0., 0., 0., 7.04610884e-01, 7.04610884e-01, 3.65533284e-03, 0.,
          0., 0., 0., 0., 0., 9.43903565e-01, 3.15641135e-01, 0., 0., 0. ]
      - [ 6.12702549e-01, 4.79444623e-01, 6.29819930e-02, 0.,
          9.49867144e-02, 1.47345290e-02, 0., 0., 6.12702549e-01,
          4.85848755e-01, 1.15564160e-01, 9.85702798e-02, 4.85848755e-01,
          4.85848755e-01, 1.61123708e-01, 3.85403410e-02, 2.08337978e-02,
          4.85848755e-01, 4.52450097e-01, 3.80484648e-02, 1.83839023e-01,
          4.52450097e-01, 4.52450097e-01, 1.54336795e-01, 2.81041991e-02,
          3.41734141e-01, 4.52450097e-01, 3.73212010e-01, 1.34566024e-01,
          3.73212010e-01, 3.73212010e-01, 3.73212010e-01, 3.72117549e-01,
          6.29979968e-02, 3.73212010e-01, 3.73212010e-01, 3.83504301e-01,
          3.70853275e-01, 4.04127389e-02, 3.83504301e-01, 3.37704837e-01,
          3.83504301e-01, 3.33717525e-01, 2.08060488e-01, 3.83504301e-01,
          4.81407166e-01, 8.29029679e-02, 3.88461794e-03, 4.42778096e-02,
          4.81407166e-01, 4.81407166e-01, 3.82444412e-02, 2.40559861e-01,
          4.81407166e-01, 5.53365648e-01, 2.46818941e-02, 1.38958963e-02,
          1.18840225e-02, 5.53365648e-01, 5.53365648e-01, 0.,
          1.03427609e-02, 2.73464441e-01, 3.08219820e-01, 5.35599068e-02,
          1.83450297e-01, 3.50966714e-02, 6.49006486e-01, 6.49006486e-01,
          4.23155352e-02, 1.04693450e-01, 7.48097226e-02, 1.71774745e-01,
          1.05950246e-02, 1.15403160e-01, 5.46206772e-01, 5.46206772e-01,
          1.33334741e-01, 1.86289921e-01, 3.11997265e-01, 4.52880412e-01,
          2.16296136e-01, 0., 8.75505283e-02, 4.84259129e-01,
          4.84259129e-01, 5.07739931e-02, 1.04143927e-02, 4.84259129e-01,
          4.84259129e-01, 3.26898277e-01, 7.17857257e-02, 9.95802134e-02,
          5.27500093e-01, 1.95014298e-01, 6.36516896e-04, 0.,
          5.27500093e-01, 5.27500093e-01, 4.08030540e-01, 7.28607848e-02,
          7.21195415e-02, 4.37827781e-02, 5.28212376e-02, 0.,
          8.77049044e-02, 6.34141386e-01, 6.34141386e-01, 4.47939396e-01,
          2.68154413e-01, 4.47939396e-01, 3.44908714e-01, 4.47939396e-01,
          4.53656688e-02, 0., 0., 4.47939396e-01, 4.95427758e-01, 0.,
          1.01101622e-02, 4.49367553e-01, 4.95427758e-01, 2.37034857e-01,
          0., 2.20665112e-02, 4.95427758e-01, 3.96680057e-01,
          2.15239167e-01, 2.77203053e-01, 3.96680057e-01, 3.96680057e-01,
          3.96680057e-01, 0., 2.93414921e-01, 3.96680057e-01,
          1.88100412e-01, 7.91008472e-02, 7.82961249e-02, 1.23993224e-02,
          4.35368448e-01, 4.35368448e-01, 4.35368448e-01, 4.35368448e-01,
          4.35368448e-01 ]
      - [ 7.06953764e-01, 1.65971979e-01, 0., 0., 4.48918995e-03,
          4.12599742e-02, 1.27586592e-02, 0., 6.80975437e-01,
          5.65101862e-01, 5.65101862e-01, 2.24289224e-02, 3.00109182e-02,
          9.01302397e-02, 1.39511049e-01, 8.50620419e-02, 1.05163725e-02,
          5.65101862e-01, 5.29025078e-01, 9.12950337e-02, 4.93918080e-03,
          1.77921006e-03, 5.29025078e-01, 3.74684155e-01, 7.92855844e-02,
          8.79241806e-03, 5.29025078e-01, 5.44918478e-01, 2.97686318e-03,
          0., 0., 5.44918478e-01, 3.22088271e-01, 0., 0., 5.44918478e-01,
          4.01964962e-01, 2.79936373e-01, 1.07911535e-01, 1.93123788e-01,
          4.01964962e-01, 4.01964962e-01, 3.64081174e-01, 2.99699515e-01,
          4.01964962e-01, 3.89351398e-01, 3.89351398e-01, 3.89351398e-01,
          2.39329442e-01, 3.89351398e-01, 3.89351398e-01, 3.89351398e-01,
          8.53975937e-02, 1.48228675e-01, 3.91983449e-01, 1.04764231e-01,
          1.43234283e-01, 1.91101730e-02, 4.94735718e-01, 4.94735718e-01,
          4.94735718e-01, 2.34207019e-01, 1.42855123e-01, 2.97339052e-01,
          5.00500668e-04, 0., 0., 6.69867337e-01, 6.69867337e-01, 0., 0.,
          8.63558352e-02, 7.08402991e-02, 5.41176423e-02, 2.77819186e-01,
          4.81835574e-01, 4.38501477e-01, 9.29628983e-02, 1.12403564e-01,
          4.81835574e-01, 4.81835574e-01, 3.49455059e-01, 3.49455059e-01,
          3.49455059e-01, 3.49455059e-01, 3.02544951e-01, 2.23927066e-01,
          3.49455059e-01, 3.49455059e-01, 3.49455059e-01, 4.46140349e-01,
          6.74099773e-02, 5.58329970e-02, 1.68539315e-01, 4.46140349e-01,
          1.55862734e-01, 4.46140349e-01, 3.72852236e-01, 4.46140349e-01,
          6.03409588e-01, 0., 0., 1.94932416e-01, 4.77248758e-01,
          1.96068478e-03, 0., 0., 6.03409588e-01, 4.63773124e-02,
          1.50927913e-03, 3.06719035e-01, 6.63379610e-01, 6.63379610e-01,
          0., 0., 7.91458637e-02, 1.03627287e-01, 1.09054975e-01,
          4.65398878e-02, 4.87075001e-01, 4.87075001e-01, 4.87075001e-01,
          4.87075001e-01, 1.25326082e-01, 5.64141199e-02, 1.14973664e-01,
          2.12404937e-01, 3.66176013e-03, 1.15498444e-02, 5.42216480e-01,
          5.42216480e-01, 4.27581310e-01, 4.22348641e-02, 3.52813788e-02,
          4.18892533e-01, 2.48675808e-01, 0., 0., 5.57551205e-01,
          5.57551205e-01, 1.62351190e-03, 0., 0., 5.57551205e-01 ]
      - [ 7.04615593e-01, 0., 0., 0., 0., 0., 0., 0., 7.04615593e-01,
          7.04615593e-01, 0., 0., 0., 0., 0., 0., 0., 7.04615593e-01,
          7.04615593e-01, 0., 0., 0., 0., 0., 0., 0., 7.04615593e-01,
          7.04615593e-01, 0., 0., 0., 0., 0., 0., 0., 7.04615593e-01,
          4.41185147e-01, 3.65445495e-01, 0., 2.97422335e-02,
          3.43804181e-01, 3.28878522e-01, 2.25527585e-01, 4.41185147e-01,
          4.41185147e-01, 4.84688491e-01, 2.34584942e-01, 0., 0.,
          4.84688491e-01, 4.84688491e-01, 1.29189063e-02, 1.64369289e-02,
          4.84688491e-01, 4.76732254e-01, 2.81592518e-01, 0., 0.,
          4.76732254e-01, 4.76732254e-01, 7.85146579e-02, 2.61715539e-02,
          4.76732254e-01, 3.90844971e-01, 3.90844971e-01, 3.90844971e-01,
          3.95768024e-02, 3.90844971e-01, 1.82545960e-01, 3.90844971e-01,
          2.11298957e-01, 3.90844971e-01, 4.85635072e-01, 1.38689786e-01,
          0., 1.01628922e-01, 5.85107028e-01, 5.85107028e-01,
          3.73279005e-02, 1.50082543e-01, 1.41895518e-01, 5.73673546e-01,
          5.55400886e-02, 0., 0., 5.73673546e-01, 5.73673546e-01,
          2.62791314e-03, 2.65269191e-03, 6.22010566e-02, 3.06645781e-01,
          9.55090970e-02, 0., 0., 6.66764021e-01, 6.66764021e-01,
          2.63341907e-02, 8.77806358e-03, 1.64565276e-02, 1.28540471e-02,
          5.71836948e-01, 5.71836948e-01, 3.08547039e-02, 5.71836948e-01,
          8.45639259e-02, 6.67833239e-02, 2.22611073e-02, 8.56723171e-03,
          0., 0., 0., 0., 9.95024860e-01, 0., 0., 0., 0., 0., 0., 0., 0.,
          9.79072928e-01, 0., 0., 0., 0., 0., 0., 0., 0., 0., 0., 0., 0.,
          0., 0., 5.70689142e-01, 5.70689142e-01, 1.03600509e-01,
          5.70689142e-01, 8.06832388e-02, 0., 0., 0. ]
      - [ 7.04615593e-01, 0., 0., 0., 0., 0., 0., 0., 7.04615593e-01,
          7.04615593e-01, 0., 0., 0., 0., 0., 0., 0., 7.04615593e-01,
          7.04615593e-01, 0., 0., 0., 0., 0., 0., 0., 7.04615593e-01,
          7.04615593e-01, 0., 0., 0., 0., 0., 0., 0., 7.04615593e-01,
          4.89477724e-01, 0., 3.42190452e-02, 9.82869565e-02,
          4.89477724e-01, 3.92241508e-01, 2.46974811e-01, 2.25088075e-01,
          4.89477724e-01, 5.65624118e-01, 0., 0., 1.22350994e-02,
          5.65624118e-01, 1.85175613e-01, 6.68846769e-03, 8.69132672e-03,
          5.65624118e-01, 5.64052284e-01, 1.70414662e-03, 0.,
          5.05659878e-02, 5.64052284e-01, 1.93242833e-01, 0., 0.,
          5.64052284e-01, 5.11026144e-01, 2.89962322e-01, 1.23054050e-01,
          3.34632158e-01, 5.11026144e-01, 1.53858028e-02, 4.15439811e-03,
          0., 5.11026144e-01, 1.68238148e-01, 0., 1.63786680e-01,
          4.71149176e-01, 4.71149176e-01, 9.57763270e-02, 2.07519948e-01,
          4.71149176e-01, 4.71149176e-01, 5.52545607e-01, 0., 0.,
          2.72769630e-01, 5.52545607e-01, 5.01819737e-02, 8.37864447e-03,
          3.96283530e-02, 5.52545607e-01, 5.65872490e-01, 2.49773562e-02,
          0., 1.07097603e-01, 5.65872490e-01, 1.47031918e-01,
          1.42723147e-03, 4.75743902e-04, 5.65872490e-01, 4.81404155e-01,
          4.81404155e-01, 7.48977512e-02, 9.29173678e-02, 4.81404155e-01,
          4.81404155e-01, 1.65364265e-01, 1.97680760e-03, 1.63093075e-01,
          3.78757417e-02, 0., 6.34527206e-02, 6.93861246e-01,
          6.93861246e-01, 0., 0., 0., 1.57244235e-01, 1.30189508e-01, 0.,
          0., 6.81343019e-01, 6.81343019e-01, 0., 0., 0., 2.18614876e-01,
          2.79656351e-01, 1.99091551e-03, 0., 3.75283360e-01,
          7.67699838e-01, 3.25838178e-01, 6.83891878e-04, 2.27963930e-04,
          2.78845012e-01, 2.29093835e-01, 1.37536330e-02, 0.,
          9.35953390e-03, 6.83661044e-01, 6.83661044e-01, 5.01735285e-02,
          1.50192273e-03, 5.57672866e-02 ]
      - [ 5.50251901e-01, 5.50251901e-01, 2.93553323e-01, 0., 0., 0., 0.,
          0., 5.50251901e-01, 6.98761463e-01, 1.19902253e-01,
          1.23833027e-02, 0., 0., 0., 0., 4.42652293e-02, 6.98761463e-01,
          6.48878217e-01, 0., 0., 0., 0., 0., 0., 3.89147848e-01,
          6.48878217e-01, 6.94724619e-01, 0., 0., 0., 0., 0., 0.,
          1.66673973e-01, 6.94724619e-01, 5.23060262e-01, 5.23060262e-01,
          5.23060262e-01, 1.40755540e-02, 3.87508348e-02, 1.67934820e-02,
          2.46641770e-01, 2.54692398e-02, 3.32471937e-01, 3.89122099e-01,
          2.26299927e-01, 1.69601411e-01, 3.89122099e-01, 3.89122099e-01,
          3.89122099e-01, 3.89122099e-01, 8.74095112e-02, 3.89122099e-01,
          3.04212898e-01, 9.29423571e-02, 1.38870060e-01, 4.83368158e-01,
          4.83368158e-01, 6.45826831e-02, 3.94957773e-02, 4.09924716e-01,
          4.83368158e-01, 3.68490010e-01, 6.14320524e-02, 1.56980857e-01,
          2.89486796e-01, 3.85447592e-01, 1.44559667e-01, 2.19862815e-02,
          4.35159594e-01, 6.21670365e-01, 4.05742694e-03, 5.48574150e-01,
          5.48574150e-01, 1.07846089e-01, 1.00476667e-02, 3.25723499e-01,
          5.19697666e-01, 6.87053427e-02, 2.13617226e-03, 3.82112950e-04,
          1.60490721e-01, 3.73630524e-01, 8.60936195e-02, 1.29731745e-01,
          5.94755948e-01, 5.94755948e-01, 3.11422199e-01, 2.92796385e-03,
          2.14981809e-01, 4.22327489e-01, 4.22327489e-01, 4.22327489e-01,
          4.22327489e-01, 4.22327489e-01, 2.14873701e-01, 4.16379683e-02,
          9.92831513e-02, 1.46416128e-01, 1.71801835e-01, 3.18592131e-01,
          4.08210248e-01, 4.08210248e-01, 4.08210248e-01, 4.08210248e-01,
          1.01437949e-01, 4.08210248e-01, 1.85637195e-02, 4.41445798e-01,
          4.41445798e-01, 2.21124217e-01, 4.08144146e-01, 4.41445798e-01,
          4.41445798e-01, 1.64504386e-02, 0., 4.48196195e-03,
          2.51542091e-01, 1.86866105e-01, 5.33874817e-02, 1.47812888e-01,
          6.55147970e-01, 6.55147970e-01, 1.10047214e-01, 0., 0.,
          1.76567182e-01, 4.96057361e-01, 4.55463618e-01, 4.96057361e-01,
          4.93031859e-01, 1.44671991e-01, 1.63186118e-02, 0., 0.,
          1.87777150e-02, 1.82090521e-01, 1.95616722e-01, 5.54582834e-01,
          5.54582834e-01, 5.54582834e-01, 0., 0. ]
      - [ 8.08033466e-01, 3.58037353e-01, 7.85855502e-02, 1.06043823e-03,
          1.31306365e-01, 1.01548791e-01, 4.97576110e-02, 2.29159351e-02,
          4.17248011e-01, 4.92389053e-01, 1.44204929e-01, 0., 0.,
          4.92389053e-01, 4.50766653e-01, 3.65315944e-01, 1.09748162e-01,
          3.75103027e-01, 5.60677946e-01, 5.33752702e-03, 0.,
          1.24874366e-02, 5.60677946e-01, 2.22314760e-01, 4.03918922e-02,
          9.04576480e-03, 5.60677946e-01, 4.88681138e-01, 3.64637282e-03,
          1.95255414e-01, 4.88681138e-01, 4.88681138e-01, 1.96572370e-03,
          0., 4.17160317e-02, 4.88681138e-01, 4.38419878e-01,
          3.06077421e-01, 4.26158875e-01, 1.84797607e-02, 4.38419878e-01,
          4.38419878e-01, 3.73509228e-01, 1.10875359e-02, 6.09620698e-02,
          1.59275189e-01, 1.57054514e-02, 0., 1.15119882e-01,
          5.52326739e-01, 5.52326739e-01, 5.52326739e-01, 1.99470520e-01,
          2.51712631e-02, 7.98760075e-03, 1.66049856e-03, 0.,
          1.20321745e-02, 7.40184009e-01, 4.59803730e-01, 4.67139900e-01,
          1.22020386e-01, 1.81291369e-04, 4.07973342e-02, 1.27619892e-01,
          5.69331288e-01, 5.69331288e-01, 5.69331288e-01, 5.97739709e-04,
          0., 6.52358169e-03, 6.25005066e-02, 2.80289371e-02,
          2.05301657e-01, 3.16992611e-01, 1.23290651e-01, 3.21598314e-02,
          4.57105219e-01, 4.57105219e-01, 4.57105219e-01, 4.57105219e-01,
          2.97472268e-01, 0., 0., 8.33899006e-02, 4.95248288e-01,
          4.95248288e-01, 1.32927895e-01, 3.82266492e-01, 4.95248288e-01,
          6.69293225e-01, 3.05933237e-01, 0., 0., 4.82096449e-02,
          3.86302732e-02, 0., 0., 6.69293225e-01, 5.91422737e-01,
          5.91422737e-01, 4.98684376e-01, 1.44074619e-01, 1.15741104e-01,
          6.79909438e-02, 9.37528163e-03, 0., 8.35612193e-02,
          2.57648472e-02, 6.12269761e-03, 1.02437906e-01, 5.32056570e-01,
          3.58954370e-01, 0., 7.34224543e-02, 5.32056570e-01,
          5.32056570e-01, 4.65629160e-01, 1.79657415e-02, 6.11342955e-03,
          4.65629160e-01, 4.00330573e-01, 4.07656468e-02, 1.21387755e-04,
          4.27353501e-01, 4.65629160e-01, 5.57319462e-01, 2.11916625e-01,
          0., 8.35713372e-03, 5.25722861e-01, 4.85925376e-01, 0.,
          6.37498358e-03, 3.55390638e-01, 4.98360723e-01, 4.98360723e-01,
          0., 0., 4.98360723e-01, 4.98360723e-01, 1.73398573e-02, 0.,
          3.56148295e-02 ]
      - [ 7.02649415e-01, 7.45220408e-02, 0., 0., 0., 0., 0., 0.,
          7.02649415e-01, 7.04605699e-01, 3.04963044e-03, 0., 0.,
          2.42528971e-03, 3.58456629e-03, 0., 0., 7.04605699e-01,
          6.85267389e-01, 0., 0., 0., 2.18041345e-01, 8.02145675e-02, 0.,
          0., 6.85267389e-01, 6.16741121e-01, 2.17879992e-02,
          1.63159519e-03, 0., 4.70416278e-01, 1.06461346e-01, 0., 0.,
          6.16741121e-01, 4.30388659e-01, 4.30388659e-01, 3.05602342e-01,
          1.86380848e-01, 4.30388659e-01, 3.54264110e-01, 3.36079486e-02,
          0., 4.30388659e-01, 3.97514254e-01, 2.06276581e-01,
          3.22751522e-01, 2.61743098e-01, 3.97514254e-01, 3.97514254e-01,
          3.47603589e-01, 1.67039633e-01, 3.97514254e-01, 4.18833792e-01,
          0., 3.17762382e-02, 6.73933625e-02, 4.18833792e-01,
          4.18833792e-01, 3.45665902e-01, 4.18833792e-01, 4.11208659e-01,
          5.77120006e-01, 1.71767697e-02, 1.28628314e-03, 0.,
          5.77120006e-01, 5.22753716e-01, 4.22976632e-03, 2.11037509e-02,
          2.32531235e-01, 1.91613004e-01, 5.15066564e-01, 2.88249612e-01,
          7.41545632e-02, 2.71423966e-01, 5.15066564e-01, 5.15066564e-01,
          1.41497666e-03, 0., 3.18686888e-02, 1.78161532e-01,
          4.44732636e-01, 4.44732636e-01, 3.66074800e-01, 4.44732636e-01,
          4.44732636e-01, 1.87767997e-01, 4.88300622e-02, 1.99176697e-03,
          1.69290453e-02, 4.60334450e-01, 5.00378132e-01, 1.07278891e-01,
          7.62173384e-02, 1.19797416e-01, 5.00378132e-01, 5.00378132e-01,
          4.23761196e-02, 0., 3.86829898e-02, 8.91566798e-02,
          4.39571977e-01, 6.56772479e-02, 1.51032493e-01, 6.17352128e-01,
          6.17352128e-01, 7.19287852e-03, 4.15539831e-01, 4.15539831e-01,
          3.63405019e-01, 4.15539831e-01, 4.15539831e-01, 4.15539831e-01,
          1.91600863e-02, 0., 0., 4.12694775e-02, 4.97061223e-01,
          4.97061223e-01, 5.56727275e-02, 4.97061223e-01, 4.97061223e-01,
          4.42002043e-02, 0., 7.50903506e-04, 1.76406763e-02,
          5.55875003e-01, 5.55875003e-01, 2.38972693e-03, 0.,
          1.51936605e-03, 5.55875003e-01, 2.59110332e-01, 3.59395123e-03,
          0., 1.89231917e-01, 5.41986167e-01, 1.30287156e-01,
          9.64398831e-02, 2.26370290e-01, 5.41986167e-01, 5.41986167e-01 ]
      - [ 5.68656743e-01, 5.68656743e-01, 0., 0., 1.42091990e-01,
          4.19310093e-01, 0., 0., 3.89319330e-01, 5.21677136e-01,
          1.45135328e-01, 0., 1.21637282e-03, 5.21677136e-01,
          3.96589398e-01, 0., 0., 5.21677136e-01, 5.55971503e-01, 0., 0.,
          2.54052401e-01, 5.55971503e-01, 4.49379459e-02, 0.,
          2.39422843e-02, 5.55971503e-01, 4.80454922e-01, 0.,
          8.59561004e-03, 4.69937950e-01, 2.85791069e-01, 0.,
          9.91175417e-03, 4.80454922e-01, 4.80454922e-01, 4.96009886e-01,
          4.96009886e-01, 0., 0., 4.80108291e-01, 4.96009886e-01,
          1.55106783e-01, 1.59667211e-03, 4.90297303e-02, 5.57427227e-01,
          1.06339261e-01, 1.60568934e-02, 1.83304248e-03, 5.57427227e-01,
          5.57427227e-01, 3.21782753e-03, 8.61707237e-03, 2.24953905e-01,
          2.90869564e-01, 6.90893317e-03, 1.35300099e-03, 5.28607726e-01,
          5.68867505e-01, 6.71166629e-02, 5.46861626e-03, 4.99300100e-02,
          5.47358096e-01, 3.26322354e-02, 1.52362242e-01, 4.38795894e-01,
          4.38795894e-01, 4.38795894e-01, 1.43586239e-03, 9.28782076e-02,
          4.38795894e-01, 4.38795894e-01, 8.99607316e-02, 6.46488592e-02,
          0., 0., 5.20384610e-01, 5.88410020e-01, 5.88410020e-01,
          1.26608759e-01, 5.06920666e-02, 3.79645973e-01, 4.45220321e-01,
          4.45220321e-01, 0., 1.62051711e-02, 2.62909550e-02,
          4.45220321e-01, 2.44036332e-01, 4.43002045e-01, 4.40116644e-01,
          4.40116644e-01, 1.40162766e-01, 0., 1.54242488e-02,
          8.48927796e-02, 4.40116644e-01, 4.40116644e-01, 4.40116644e-01,
          4.69728053e-01, 4.69728053e-01, 4.69728053e-01, 8.28648210e-02,
          8.08246210e-02, 4.69728053e-01, 3.05869550e-01, 3.04714274e-02,
          6.96163774e-02, 0., 0., 0., 0., 6.12402797e-01, 1.35330269e-02,
          6.12402797e-01, 4.93586928e-01, 0., 8.19851756e-02,
          4.74696368e-01, 4.74696368e-01, 4.74696368e-01, 4.74696368e-01,
          9.44117084e-02, 2.11369559e-01, 1.47763565e-01, 1.08470477e-01,
          4.74233776e-01, 3.38844210e-01, 1.53358057e-01, 1.18183233e-01,
          4.74233776e-01, 4.74233776e-01, 2.43485615e-01, 2.36175433e-01,
          2.30661839e-01, 5.25689721e-01, 3.76470119e-01, 0., 0.,
          5.25689721e-01, 5.25689721e-01, 1.52102828e-01, 1.53949848e-04,
          2.89150700e-02 ]
      - [ 5.62893569e-01, 5.62893569e-01, 0., 2.60563986e-03,
          1.99349985e-01, 9.85642895e-02, 0., 0., 5.57869792e-01,
          5.73493004e-01, 4.95137908e-02, 0., 4.88242730e-02,
          5.73493004e-01, 5.24895415e-02, 0., 0., 5.73493004e-01,
          6.60903156e-01, 0., 0., 9.66957584e-02, 3.30549985e-01, 0.,
          1.06665029e-04, 3.46783064e-02, 6.60903156e-01, 5.71081579e-01,
          0., 0., 4.80995141e-03, 1.00730201e-02, 0., 1.25580534e-01,
          5.71081579e-01, 5.71081579e-01, 4.54044312e-01, 4.54044312e-01,
          2.45196484e-02, 1.59094925e-03, 4.54044312e-01, 4.54044312e-01,
          4.08835858e-01, 9.85664688e-03, 5.47003075e-02, 4.72054869e-01,
          4.72054869e-01, 4.42742035e-02, 1.94766432e-01, 4.72054869e-01,
          3.11185271e-01, 1.22577883e-01, 1.41533405e-01, 3.93687934e-01,
          3.38314623e-01, 7.17767030e-02, 3.07631642e-01, 4.86647367e-01,
          4.86647367e-01, 0., 2.52850980e-01, 2.34782338e-01,
          4.33804095e-01, 8.34153965e-02, 8.52165520e-02, 3.97064030e-01,
          4.56893027e-01, 3.44588682e-02, 0., 4.56893027e-01,
          4.56893027e-01, 4.42849100e-01, 3.71306278e-02, 4.93425459e-01,
          4.93425459e-01, 9.94061586e-03, 1.26347139e-01, 4.93425459e-01,
          4.93425459e-01, 5.62931448e-02, 2.42278669e-02, 2.06285805e-01,
          4.88784373e-01, 4.88784373e-01, 5.04415631e-02, 1.21736407e-01,
          1.96413063e-02, 4.88784373e-01, 3.84927779e-01, 2.64413923e-01,
          3.80369753e-01, 3.80369753e-01, 3.80369753e-01, 3.34935904e-01,
          1.25637993e-01, 1.20862164e-02, 3.80369753e-01, 3.80369753e-01,
          3.80369753e-01, 1.02502421e-01, 4.62997735e-01, 4.62997735e-01,
          1.34274244e-01, 1.96734920e-01, 2.65749067e-01, 4.62997735e-01,
          4.62997735e-01, 6.66125072e-03, 0., 4.55697060e-01,
          4.55697060e-01, 4.55697060e-01, 3.92434150e-01, 3.61625940e-01,
          2.95464814e-01, 1.97824817e-02, 0., 2.13332493e-02,
          3.76515061e-01, 5.18744051e-01, 5.18744051e-01, 5.18744051e-01,
          8.21745023e-02, 1.22507058e-01, 9.27238688e-02, 1.22295089e-01,
          5.05034328e-01, 1.97689056e-01, 3.90242189e-02, 2.80935541e-02,
          6.62043512e-01, 2.98263431e-01, 7.58534744e-02, 8.96596834e-02,
          3.94819796e-01, 8.26941580e-02, 1.23087481e-01, 5.35522290e-02,
          2.78088171e-03, 5.79529583e-01, 5.79529583e-01, 5.27278960e-01,
          1.39761865e-01, 9.11959819e-03 ]
      - [ 4.83508795e-01, 4.83508795e-01, 0., 1.08465310e-02,
          4.83508795e-01, 4.83508795e-01, 1.97187245e-01, 0.,
          1.45077705e-01, 4.78373110e-01, 2.30661277e-02, 0.,
          4.78373110e-01, 4.78373110e-01, 2.77315199e-01, 1.52460029e-02,
          4.68030870e-02, 4.78373110e-01, 2.01107204e-01, 0.,
          3.97823099e-03, 5.37523746e-01, 5.37523746e-01, 0., 0.,
          2.95595497e-01, 5.37523746e-01, 5.48554622e-02, 0.,
          1.62590928e-02, 4.37559694e-01, 5.33973835e-02, 0., 0.,
          6.30918980e-01, 6.30918980e-01, 8.73114318e-02, 1.86357051e-01,
          0., 1.28852041e-03, 3.23372751e-01, 6.50263369e-01,
          6.50263369e-01, 1.19788172e-02, 2.74895597e-02, 0., 0., 0.,
          5.73411703e-01, 5.73411703e-01, 5.73411703e-01, 8.87203142e-02,
          0., 0., 5.88759361e-03, 1.94703392e-03, 7.90110901e-02,
          6.99957073e-01, 6.99957073e-01, 0., 0., 3.20601091e-02,
          7.63146132e-02, 7.93691427e-02, 8.90273303e-02, 4.94582862e-01,
          4.94582862e-01, 4.88484614e-02, 0., 0., 4.94582862e-01,
          4.94582862e-01, 4.88449574e-01, 0., 0., 0., 4.88449574e-01,
          4.88449574e-01, 1.32266030e-01, 1.52627915e-01, 4.88449574e-01,
          7.04563439e-01, 1.21474518e-02, 0., 0., 0., 0., 0., 0.,
          7.04563439e-01, 6.85291827e-01, 6.72555804e-01, 2.01860536e-02,
          1.05975039e-01, 8.12236778e-03, 1.13102142e-02, 0., 0.,
          2.43660957e-01, 4.58194971e-01, 4.58194971e-01, 4.58194971e-01,
          3.46881479e-01, 1.64831012e-01, 4.58194971e-01, 8.86279047e-02,
          1.09178079e-02, 1.35196410e-02, 5.49550116e-01, 1.10523656e-01,
          1.65310591e-01, 1.69576973e-01, 5.47574103e-01, 1.15362868e-01,
          1.20588727e-02, 9.43960622e-02, 5.49550116e-01, 5.49646080e-01,
          3.88253503e-03, 2.95165717e-03, 8.78902152e-03, 5.49646080e-01,
          2.95744270e-01, 2.34906357e-02, 7.83021189e-03, 5.49646080e-01,
          5.52680552e-01, 1.97897404e-01, 1.89243292e-04, 0.,
          5.52680552e-01, 5.52680552e-01, 4.78467625e-03, 1.59489235e-03,
          1.97293371e-01, 5.01006961e-01, 2.92270422e-01, 5.41928341e-04,
          0., 5.64938664e-01, 5.64938664e-01, 1.40039951e-01,
          2.01079482e-03, 1.31371582e-03 ]
      - [ 5.65474987e-01, 5.65474987e-01, 5.65474987e-01, 0., 0., 0., 0.,
          0., 1.87262669e-01, 4.98083591e-01, 4.98083591e-01,
          4.94506419e-01, 0., 6.28559245e-03, 5.31414226e-02,
          5.79966865e-02, 0., 4.98083591e-01, 4.95806187e-01,
          4.95806187e-01, 8.46134312e-03, 0., 2.10782990e-01,
          4.95806187e-01, 8.42893869e-02, 0., 4.53840286e-01,
          4.19438452e-01, 4.19438452e-01, 0., 0., 4.19438452e-01,
          4.19438452e-01, 4.19438452e-01, 1.96861997e-01, 2.78230518e-01,
          5.71690321e-01, 5.71690321e-01, 4.52821366e-02, 0.,
          3.23351882e-02, 5.48016548e-01, 1.63833350e-01, 3.16563584e-02,
          9.67988223e-02, 3.77000809e-01, 3.77000809e-01, 3.77000809e-01,
          2.78807938e-01, 3.77000809e-01, 3.77000809e-01, 3.15572530e-01,
          2.61407942e-01, 1.99828476e-01, 3.84695709e-01, 1.71768099e-01,
          1.37322739e-01, 8.29608440e-02, 4.22495931e-01, 4.22495931e-01,
          4.22495931e-01, 4.22495931e-01, 2.80237377e-01, 5.00816762e-01,
          7.41109625e-02, 0., 0., 5.02309144e-01, 5.02309144e-01,
          1.25659153e-01, 4.68825400e-02, 4.64818448e-01, 3.67891878e-01,
          3.67891878e-01, 2.87291855e-01, 3.67891878e-01, 3.67891878e-01,
          2.96520084e-01, 3.67891878e-01, 1.17461056e-01, 3.67891878e-01,
          4.07300293e-01, 1.85081854e-01, 4.07300293e-01, 2.92674124e-01,
          4.07300293e-01, 4.07300293e-01, 1.07594818e-01, 1.87011659e-01,
          4.07300293e-01, 4.55041796e-01, 4.26044017e-02, 2.78769910e-01,
          1.99287921e-01, 4.55041796e-01, 1.88741401e-01, 1.11067347e-01,
          4.55041796e-01, 4.55041796e-01, 5.66022813e-01, 0., 0.,
          1.74922869e-01, 5.66022813e-01, 4.11084294e-02, 3.45374597e-03,
          3.00417282e-02, 5.66022813e-01, 3.22665200e-02, 1.47231808e-02,
          1.05962873e-01, 6.93673551e-01, 6.93673551e-01, 1.02506659e-03,
          2.00871378e-02, 1.28110107e-02, 1.32871285e-01, 1.80495307e-01,
          1.56414267e-02, 2.67791022e-02, 1.69214860e-01, 9.30545151e-01,
          6.39863163e-02, 1.55613711e-03, 2.39080982e-03, 2.41920248e-01,
          1.01649098e-01, 5.48746809e-03, 3.01278420e-02, 1.80103421e-01,
          9.12211537e-01, 2.26453722e-01, 0., 6.03087479e-03,
          2.52474427e-01, 1.56677708e-01, 0., 0., 1.82939038e-01,
          8.82222474e-01, 4.26286831e-02, 0., 0., 3.91214609e-01 ]
      - [ 2.37891078e-01, 5.15821278e-01, 5.15821278e-01, 5.15821278e-01,
          1.32603407e-01, 0., 0., 1.15424745e-01, 3.30355912e-01,
          1.19127512e-01, 1.14838183e-01, 2.27815732e-01, 5.44858336e-01,
          1.57002583e-01, 0., 4.26397519e-03, 5.44858336e-01,
          5.44858336e-01, 7.60211498e-02, 0., 9.14983265e-03,
          3.27951372e-01, 1.87216308e-02, 0., 1.06983371e-02,
          6.63136423e-01, 6.63136423e-01, 1.45219401e-01, 0., 0., 0., 0.,
          0., 0., 6.97119951e-01, 6.97119951e-01, 5.08624017e-01,
          1.32082760e-01, 3.60193551e-01, 5.08624017e-01, 5.08624017e-01,
          0., 0., 0., 2.67656237e-01, 6.19610369e-01, 2.14060009e-01,
          1.22996114e-01, 6.19610369e-01, 2.28191435e-01, 6.36622589e-03,
          1.37980300e-04, 1.76595777e-01, 2.85887927e-01, 3.04888219e-01,
          3.08628023e-01, 4.35680687e-01, 4.35680687e-01, 1.96030512e-01,
          9.86970663e-02, 4.27396561e-04, 4.35680687e-01, 4.35680687e-01,
          5.54524139e-02, 3.00418809e-02, 7.58560672e-02, 1.38976231e-01,
          1.79931685e-01, 2.25395802e-02, 1.80834025e-01, 6.70327365e-01,
          6.70327365e-01, 6.12647951e-01, 3.62238914e-01, 0., 0.,
          3.58056754e-01, 5.50983369e-01, 0., 0., 2.35671386e-01,
          5.47529697e-01, 3.01416785e-01, 1.07060168e-02, 3.41867059e-02,
          5.47529697e-01, 5.47529697e-01, 4.21000266e-04, 0.,
          5.50481491e-02, 4.66414779e-01, 2.51995474e-01, 2.35321894e-01,
          4.66414779e-01, 4.66414779e-01, 4.66414779e-01, 2.08811439e-03,
          6.90693408e-02, 3.89508083e-02, 5.78682348e-02, 1.71814524e-02,
          4.76193398e-01, 4.76193398e-01, 2.64383674e-01, 1.20825082e-01,
          7.86807109e-03, 4.76193398e-01, 4.76193398e-01, 5.74017763e-01,
          5.60239628e-02, 0., 0., 5.74017763e-01, 5.74017763e-01, 0., 0.,
          5.13830520e-02, 2.14687899e-01, 1.29250875e-02, 0., 0.,
          6.88066363e-01, 6.88066363e-01, 0., 0., 1.65242527e-03,
          6.32455293e-03, 1.76704358e-02, 1.28183246e-01, 3.86824727e-01,
          6.43102944e-01, 6.43102944e-01, 0., 0., 0., 4.92597148e-02,
          4.91898581e-02, 6.30342722e-01, 6.30342722e-01, 4.17980045e-01,
          1.40177514e-02, 0., 1.18426390e-01, 7.25798085e-02 ]
      - [ 5.34521699e-01, 1.09478556e-01, 1.74390152e-02, 5.20216882e-01,
          9.71500427e-02, 0., 0., 3.61775905e-01, 5.34521699e-01,
          6.93723321e-01, 6.18269257e-02, 0., 6.04775436e-02,
          3.36734317e-02, 0., 0., 1.48178250e-01, 6.93723321e-01,
          4.75627482e-01, 4.75627482e-01, 1.84050530e-01, 0., 0.,
          4.75627482e-01, 2.11056009e-01, 1.09289363e-01, 4.75627482e-01,
          4.09193903e-01, 3.97989899e-01, 1.78338420e-02, 0., 0.,
          4.09193903e-01, 4.09193903e-01, 4.09193903e-01, 4.09193903e-01,
          2.06930012e-01, 4.63579223e-02, 2.58482341e-02, 5.60047388e-01,
          5.60047388e-01, 0., 0., 8.83798525e-02, 5.60047388e-01,
          4.30725396e-01, 3.63197118e-01, 2.81260669e-01, 4.30725396e-01,
          4.30725396e-01, 1.11094095e-01, 2.14094464e-02, 1.72568977e-01,
          4.30725396e-01, 3.48019719e-01, 3.48019719e-01, 1.66075438e-01,
          3.48019719e-01, 3.48019719e-01, 3.48019719e-01, 3.48019719e-01,
          3.48019719e-01, 3.48019719e-01, 1.34634018e-01, 7.97441602e-02,
          1.06299007e-02, 3.22688073e-01, 7.27930143e-02, 4.79038924e-01,
          4.15638924e-01, 4.79038924e-01, 4.79038924e-01, 5.88082135e-01,
          5.88082135e-01, 8.38786289e-02, 1.14046365e-01, 4.53478366e-01,
          2.73127347e-01, 2.90792510e-02, 7.42646575e-04, 3.62909548e-02,
          4.99043375e-01, 4.99043375e-01, 1.06912516e-01, 1.20064996e-01,
          2.25812763e-01, 4.99043375e-01, 4.12422746e-01, 4.32516588e-03,
          3.05657666e-02, 6.80654719e-02, 1.16589889e-01, 9.69843641e-02,
          4.84812707e-01, 4.84812707e-01, 4.84812707e-01, 4.34520900e-01,
          1.95535511e-01, 1.88024417e-01, 1.07669733e-01, 0.,
          2.33659018e-02, 5.14128983e-01, 4.35590893e-01, 1.44448466e-04,
          1.15129596e-03, 5.14128983e-01, 5.14128983e-01, 4.38162059e-01,
          4.38162059e-01, 3.85117531e-01, 7.95342401e-02, 4.38162059e-01,
          4.38162059e-01, 2.69920737e-01, 9.14623588e-03, 9.85770859e-03,
          2.12638602e-01, 4.04071599e-01, 2.16961075e-02, 0.,
          2.37280175e-01, 6.03334129e-01, 6.03334129e-01, 2.03094501e-02,
          1.66587569e-02, 0., 0., 0., 4.51577991e-01, 1.70116946e-01,
          6.16630673e-01, 6.16630673e-01, 2.26696189e-02, 0.,
          2.27862522e-02, 0., 0., 7.03596950e-01, 7.03596950e-01, 0., 0.,
          3.37147899e-02, 3.49754207e-02 ]
      - [ 6.17420137e-01, 4.46472727e-02, 0., 0., 5.01776993e-01,
          2.21807614e-01, 0., 0., 5.56467235e-01, 5.52572668e-01,
          2.20874883e-03, 0., 0., 5.52572668e-01, 2.80120194e-01, 0., 0.,
          5.52572668e-01, 5.71987569e-01, 0., 0., 9.90827531e-02,
          5.71987569e-01, 5.44213392e-02, 0., 0., 5.71987569e-01,
          4.42554563e-01, 0., 5.67188784e-02, 3.23138148e-01,
          4.78668749e-01, 5.13141626e-04, 6.60122707e-02, 4.78668749e-01,
          4.78668749e-01, 3.54635864e-01, 3.06318281e-03, 0., 0.,
          6.56332910e-01, 6.56332910e-01, 0., 0., 7.82666430e-02,
          1.12229161e-01, 0., 0., 0., 6.99229181e-01, 6.99229181e-01, 0.,
          0., 5.08090928e-02, 7.61345848e-02, 6.91691861e-02,
          6.61711767e-02, 3.41619611e-01, 9.15026486e-01, 1.32654220e-01,
          0., 0., 6.58511817e-02, 4.34857644e-02, 4.07612652e-01,
          4.07612652e-01, 4.07612652e-01, 4.07612652e-01, 5.31194266e-04,
          3.99056524e-01, 4.07612652e-01, 6.36424571e-02, 5.18269122e-01,
          8.41874406e-02, 8.56625009e-03, 0., 5.18269122e-01,
          4.26443994e-01, 0., 0., 5.18269122e-01, 7.00397253e-01,
          9.14217606e-02, 0., 0., 5.94609156e-02, 1.46592222e-03, 0., 0.,
          7.00397253e-01, 6.87975109e-01, 6.87975109e-01, 1.29968077e-02,
          9.55758034e-04, 2.91819014e-02, 5.33783957e-02, 0., 0.,
          2.06499845e-01, 4.74174947e-01, 4.74174947e-01, 2.90333897e-01,
          1.46279056e-02, 9.49773490e-02, 4.74174947e-01, 4.74174947e-01,
          4.53805849e-02, 1.75689105e-02, 4.59328979e-01, 4.59328979e-01,
          2.89705426e-01, 2.53069073e-01, 4.59328979e-01, 5.92142791e-02,
          0., 0., 4.59328979e-01, 5.07424772e-01, 3.43837887e-02, 0.,
          1.14519475e-03, 5.07424772e-01, 5.07424772e-01, 0., 0.,
          4.70434904e-01, 5.37262857e-01, 2.96990871e-01, 0.,
          5.76584949e-04, 5.37262857e-01, 5.37262857e-01, 0., 0.,
          2.01188356e-01, 3.06056291e-01, 1.59514174e-01, 0.,
          3.15411575e-03, 6.56461477e-01, 6.56461477e-01, 1.11428447e-01,
          0., 4.63200128e-03 ]
      - [ 3.48067097e-02, 7.19901174e-02, 3.95060867e-01, 5.11931598e-01,
          9.61385202e-03, 0., 2.14722633e-01, 5.11931598e-01,
          5.11931598e-01, 3.52353692e-01, 2.63342947e-01, 3.32359015e-03,
          1.14131741e-01, 1.10027231e-02, 0., 2.01578647e-01,
          6.10984802e-01, 6.10984802e-01, 6.64389551e-01, 6.64389551e-01,
          1.75397061e-02, 0., 4.39257920e-02, 3.27868879e-01,
          8.11488554e-03, 5.01307240e-03, 2.67238952e-02, 4.73110110e-01,
          4.73110110e-01, 3.49236019e-02, 0., 4.73110110e-01,
          4.73110110e-01, 2.73273110e-01, 7.28760511e-02, 1.36868924e-01,
          5.19592240e-02, 1.12865895e-01, 4.18143511e-01, 5.80588222e-01,
          1.17601834e-01, 0., 2.84350626e-02, 5.80588222e-01,
          3.39287758e-01, 4.01047051e-01, 4.01047051e-01, 4.01047051e-01,
          4.01047051e-01, 8.82958621e-02, 8.48187506e-02, 1.26375407e-01,
          4.01047051e-01, 4.01047051e-01, 5.24136007e-01, 5.24136007e-01,
          4.64435760e-03, 4.63662931e-04, 2.29414567e-01, 5.24136007e-01,
          2.64219433e-01, 1.41907454e-01, 1.67354599e-01, 2.44154274e-01,
          2.27551043e-01, 1.93621330e-02, 0., 6.56726360e-01,
          6.56726360e-01, 1.37402073e-01, 4.57365857e-03, 1.40928328e-02,
          5.53587317e-01, 5.53587317e-01, 1.58426821e-01, 2.04646185e-01,
          3.06237638e-02, 5.53587317e-01, 7.63594061e-02, 1.23635521e-02,
          3.45621482e-02, 3.89638394e-01, 3.89638394e-01, 3.41449171e-01,
          3.89638394e-01, 3.89638394e-01, 3.89638394e-01, 2.85741687e-01,
          1.36314362e-01, 1.42125204e-01, 8.03173855e-02, 2.33347323e-02,
          1.45363420e-01, 4.54371184e-01, 2.94480115e-01, 4.04449433e-01,
          3.12535137e-01, 4.54371184e-01, 4.54371184e-01, 4.41014618e-02,
          1.85249734e-03, 3.99706960e-02, 2.72837400e-01, 4.64854725e-02,
          1.43405676e-01, 3.10532958e-03, 6.68060124e-01, 6.68060124e-01,
          4.08258498e-01, 5.18840313e-01, 1.26002327e-01, 3.57558514e-04,
          3.74390706e-02, 5.18840313e-01, 5.18840313e-01, 5.72601371e-02,
          6.76120690e-04, 9.81465504e-02, 6.24934398e-02, 3.00233867e-02,
          5.63853562e-01, 3.77480656e-01, 6.41676784e-01, 3.26858699e-01,
          8.22638161e-03, 8.84221308e-03, 1.46801397e-03, 3.80337657e-03,
          3.94605041e-01, 7.64617682e-01, 7.35440180e-02, 1.23465108e-02,
          6.87578635e-04, 3.62121791e-01, 3.39565456e-01, 3.78115959e-02,
          2.78532952e-02, 2.97150314e-01, 5.48939586e-01, 3.23583093e-03,
          0., 0., 5.48939586e-01, 5.48939586e-01 ]
      - [ 5.16901135e-01, 0., 0., 0., 0., 0., 0., 0., 8.51070225e-01, 0.,
          0., 0., 0., 0., 0., 0., 0., 0., 0., 0., 0., 0., 0., 0., 0., 0.,
          0., 5.22489488e-01, 5.22489488e-01, 4.18565720e-01, 0., 0., 0.,
          0., 2.44752225e-02, 5.22489488e-01, 3.94324780e-01, 0.,
          1.34095158e-02, 4.09187317e-01, 2.84009308e-01, 6.05537370e-03,
          0., 5.43492675e-01, 5.43492675e-01, 5.98658562e-01, 0., 0.,
          1.76683255e-02, 5.25721550e-01, 1.16621442e-02, 0.,
          2.01730616e-02, 5.98658562e-01, 5.97230554e-01, 0., 0.,
          1.11929607e-02, 5.28687716e-01, 3.21257934e-02, 0., 0.,
          5.97230554e-01, 4.79909480e-01, 4.79909480e-01, 3.56599748e-01,
          2.57158512e-03, 3.98211062e-01, 1.35811746e-01, 0.,
          8.97427555e-03, 4.79909480e-01, 1.64695784e-01, 0.,
          3.61805316e-03, 5.64377964e-01, 5.64377964e-01, 6.20295573e-03,
          0., 1.07798524e-01, 5.64377964e-01, 5.73378623e-01, 0., 0.,
          3.36149894e-02, 5.76131344e-01, 2.21878905e-02, 0.,
          2.63706595e-03, 5.76131344e-01, 6.26179814e-01, 0., 0.,
          2.68026143e-02, 6.26179814e-01, 7.69282877e-02, 0., 0.,
          4.50454682e-01, 5.74777901e-01, 1.32297188e-01, 1.55722899e-02,
          9.27845202e-03, 6.09903038e-01, 4.45825368e-01, 0., 0.,
          2.73802042e-01, 0., 0., 0., 0., 9.95024860e-01, 0., 0., 0., 0.,
          0., 0., 0., 0., 9.95024860e-01, 0., 0., 0., 0., 0., 0., 0., 0.,
          9.95024860e-01, 0., 0., 0., 0., 0., 0., 0., 0., 9.95024860e-01,
          0., 0., 0., 0. ]
      - [ 0., 0., 0., 0., 0., 0., 0., 0., 0., 0., 0., 0., 0., 0., 0., 0.,
          0., 0., 7.20740438e-01, 6.67365670e-01, 0., 0., 0., 0., 0., 0.,
          0., 7.00762272e-01, 1.04255185e-01, 0., 0., 0., 0., 0., 0.,
          7.00762272e-01, 6.25924945e-01, 0., 4.26057167e-03,
          3.13612640e-01, 3.33662271e-01, 1.04343938e-02, 0.,
          1.93950608e-02, 6.25924945e-01, 6.27051771e-01, 0., 0.,
          5.40033691e-02, 1.68370709e-01, 8.90483633e-02, 2.64802456e-01,
          3.13107818e-01, 6.27051771e-01, 4.34825331e-01, 4.21517313e-01,
          4.34825331e-01, 7.48104602e-02, 0., 0., 4.34825331e-01,
          2.36834630e-01, 4.34825331e-01, 4.18261826e-01, 4.18261826e-01,
          4.18261826e-01, 4.18261826e-01, 2.12444589e-01, 4.35173549e-02,
          1.21986202e-03, 2.72174776e-01, 4.18261826e-01, 2.36059055e-01,
          0., 2.74721370e-03, 5.59125364e-01, 5.59125364e-01,
          2.57919617e-02, 0., 1.25059215e-02, 5.59125364e-01,
          2.33449042e-01, 0., 0., 9.11743045e-02, 5.68994045e-01,
          1.50341019e-01, 4.47067946e-01, 2.48045027e-01, 5.68994045e-01,
          3.39532822e-01, 1.57231972e-01, 4.26846713e-01, 9.34770983e-03,
          4.26846713e-01, 0., 4.26846713e-01, 4.12133217e-01,
          3.73090237e-01, 3.33849013e-01, 4.85226393e-01, 4.85226393e-01,
          3.54035765e-01, 4.85226393e-01, 2.16573507e-01, 6.07090676e-03,
          2.62651891e-02, 6.62750304e-02, 0., 0., 0., 0., 9.95024860e-01,
          0., 0., 0., 0., 0., 0., 0., 0., 9.95024860e-01, 0., 0., 0., 0.,
          0., 0., 0., 0., 9.95024860e-01, 0., 0., 0., 0., 0., 0., 0., 0.,
          9.95024860e-01, 0., 0., 0., 0. ]
      - [ 4.36527729e-01, 3.19544256e-01, 3.41261953e-01, 4.36527729e-01,
          4.36527729e-01, 0., 0., 1.21842094e-01, 4.36527729e-01,
          3.37314188e-01, 0., 3.52214323e-03, 4.61190552e-01,
          3.09630960e-01, 1.67302834e-03, 0., 3.70722800e-01,
          6.58503175e-01, 1.81613252e-01, 0., 0., 4.35104556e-02,
          7.28130266e-02, 1.48313623e-02, 0., 6.90185487e-01,
          6.90185487e-01, 3.29843372e-01, 0., 0., 0., 0., 0., 0.,
          6.65042877e-01, 6.65042877e-01, 1.38353324e-02, 5.05815782e-02,
          1.49122551e-01, 6.89101577e-01, 6.89101577e-01, 0., 0.,
          9.53890197e-03, 1.35353163e-01, 4.38933931e-02, 0.,
          2.97757816e-02, 6.04229808e-01, 6.04229808e-01, 8.35929066e-03,
          0., 8.69691595e-02, 5.03321886e-01, 4.04434353e-02,
          1.06344642e-02, 4.52474058e-02, 4.97612238e-01, 4.97612238e-01,
          2.76087336e-02, 0., 4.97612238e-01, 4.97612238e-01,
          1.57884300e-01, 7.34380037e-02, 1.44132167e-01, 3.94660175e-01,
          1.52626455e-01, 5.79243619e-03, 0., 6.17920101e-01,
          6.17920101e-01, 5.77441633e-01, 0., 1.20836205e-03,
          1.44185657e-02, 5.71711123e-01, 1.71316862e-02, 0., 0.,
          5.77441633e-01, 5.70041835e-01, 0., 1.09161378e-03,
          1.16250835e-01, 5.55790782e-01, 1.48286015e-01, 2.21464667e-03,
          0., 5.70041835e-01, 4.64278549e-01, 1.36917636e-01,
          1.19842954e-01, 4.64278549e-01, 4.64278549e-01, 4.64278549e-01,
          1.80019822e-03, 4.01998498e-03, 3.16253304e-01, 3.89157593e-01,
          3.87767762e-01, 3.89157593e-01, 2.92233825e-01, 3.89157593e-01,
          3.89157593e-01, 0., 5.59425056e-02, 3.89157593e-01,
          6.00518703e-01, 0., 0., 1.67129003e-02, 6.00518703e-01,
          3.70074250e-02, 0., 0., 5.20681918e-01, 5.92422307e-01, 0., 0.,
          0., 5.92422307e-01, 4.48284388e-01, 1.88536954e-03, 0.,
          3.01982999e-01, 5.47491074e-01, 1.42057566e-02, 0., 0.,
          5.85756361e-01, 5.85756361e-01, 3.49416956e-03, 0.,
          8.92728120e-02, 1.57888249e-01, 7.87908211e-02, 0.,
          3.39468569e-03, 6.93507671e-01, 6.93507671e-01, 0., 0.,
          4.80073038e-03 ]
      - [ 5.48240006e-01, 5.48240006e-01, 5.38320184e-01, 0., 0., 0., 0.,
          0., 3.21873218e-01, 6.59460783e-01, 3.45732242e-01,
          6.40965626e-02, 0., 0., 0., 0., 0., 6.59460783e-01,
          7.02664614e-01, 0., 0., 0., 0., 0., 0., 7.42328689e-02,
          7.02664614e-01, 6.47115409e-01, 0., 0., 0., 0., 0., 0.,
          3.94997120e-01, 6.47115409e-01, 4.41853195e-01, 4.41853195e-01,
          4.41853195e-01, 4.19541150e-01, 1.82450339e-01, 0., 0.,
          7.31196702e-02, 4.41853195e-01, 4.46674347e-01, 3.22357476e-01,
          2.71019012e-01, 4.46674347e-01, 4.46674347e-01, 1.41218379e-01,
          0., 1.25796683e-02, 4.46674347e-01, 5.04945278e-01, 0.,
          6.34609431e-04, 4.71419990e-01, 5.04945278e-01, 1.84695553e-02,
          0., 8.64252970e-02, 5.04945278e-01, 1.36975855e-01, 0.,
          1.25761569e-01, 5.25096655e-01, 3.64435792e-01, 8.77466891e-03,
          1.03756757e-02, 5.25096655e-01, 5.25096655e-01, 3.60949337e-01,
          2.21880595e-03, 1.92781296e-02, 5.22010267e-01, 5.22010267e-01,
          0., 0., 2.15966329e-01, 5.22010267e-01, 2.91698694e-01,
          8.51592747e-04, 2.10484248e-02, 3.08405101e-01, 5.66705585e-01,
          1.56165451e-01, 9.71145257e-02, 3.70899022e-01, 5.66705585e-01,
          5.26585460e-01, 1.54703278e-02, 5.24368361e-02, 3.37811321e-01,
          5.26585460e-01, 2.73523685e-02, 1.99446082e-01, 7.23324940e-02,
          5.26585460e-01, 3.71939421e-01, 3.71939421e-01, 3.71939421e-01,
          3.71939421e-01, 3.71939421e-01, 2.07676485e-01, 1.23847604e-01,
          3.71939421e-01, 3.28302830e-01, 0., 0., 0., 6.98847651e-01,
          6.98847651e-01, 0., 0., 3.82194370e-02, 1.21602029e-01,
          3.38322297e-02, 0., 0., 2.52553642e-01, 8.21257114e-01,
          1.31353557e-01, 1.08622082e-01, 9.67334732e-02, 4.62604702e-01,
          2.78875589e-01, 1.65894888e-02, 4.97684665e-02, 0.,
          8.58855665e-01, 2.05680374e-02, 2.13874489e-01, 6.33919090e-02,
          3.50840956e-01, 1.88001245e-01, 2.37618327e-01, 3.58256847e-01,
          7.58781955e-02, 8.10342491e-01, 3.09978545e-01, 8.28788280e-02,
          3.02477367e-02, 7.39934891e-02 ]
      - [ 4.60158169e-01, 4.60158169e-01, 4.60158169e-01, 4.60158169e-01,
          0., 4.94122272e-03, 8.09064806e-02, 2.18953099e-02,
          3.75994533e-01, 4.24010038e-01, 3.82642373e-02, 7.19060749e-02,
          3.48935366e-01, 4.24010038e-01, 3.44019532e-01, 2.80065536e-01,
          3.62262666e-01, 4.24010038e-01, 4.39490795e-01, 0., 0.,
          4.76398200e-01, 4.76398200e-01, 4.40889038e-02, 6.95380941e-03,
          3.45299482e-01, 4.76398200e-01, 4.83089864e-01, 0., 0.,
          4.96757746e-01, 4.96757746e-01, 1.30001293e-03, 0.,
          1.46137685e-01, 4.96757746e-01, 5.18131077e-01, 1.62554219e-01,
          5.32948613e-01, 5.32948613e-01, 0., 2.30035512e-03,
          7.13295117e-02, 2.90826093e-02, 3.54664117e-01, 2.24356577e-01,
          3.18889245e-02, 4.65714604e-01, 4.65714604e-01, 1.94115996e-01,
          9.85351056e-02, 1.70425609e-01, 4.65714604e-01, 4.65714604e-01,
          2.42638607e-02, 1.52279381e-02, 1.07941218e-01, 4.93872732e-01,
          4.93872732e-01, 1.59382876e-02, 8.18548948e-02, 4.93872732e-01,
          4.93872732e-01, 1.05488554e-01, 0., 0., 6.26177609e-01,
          6.26177609e-01, 2.08540863e-04, 2.70005055e-02, 6.27384260e-02,
          4.40179735e-01, 4.44230169e-01, 4.44230169e-01, 4.44230169e-01,
          4.44230169e-01, 0., 3.34913209e-02, 7.76617974e-02,
          4.13195789e-02, 4.44230169e-01, 3.74555916e-01, 1.75001353e-01,
          3.74555916e-01, 3.74555916e-01, 3.74555916e-01, 2.21620724e-01,
          2.73429573e-01, 3.74555916e-01, 3.74555916e-01, 4.41599526e-02,
          5.36774620e-02, 1.22170404e-01, 4.98684682e-02, 4.41213936e-01,
          4.41213936e-01, 4.41213936e-01, 4.41213936e-01, 4.41213936e-01,
          0., 0., 0., 0., 3.54920834e-01, 3.69677931e-01, 5.90105176e-01,
          5.90105176e-01, 1.87160283e-01, 2.62099057e-02, 1.29467338e-01,
          6.90027297e-01, 6.90027297e-01, 7.87467416e-03, 1.80509239e-02,
          1.04901336e-01, 1.08039595e-01, 1.79691147e-02, 4.88309152e-02,
          2.07248069e-02, 2.91123539e-01, 4.74597543e-01, 4.12238181e-01,
          5.67214377e-02, 2.42500871e-01, 4.74597543e-01, 4.74597543e-01,
          6.85370564e-02, 3.17063443e-02, 1.05038047e-01, 1.69775575e-01,
          5.28202832e-01, 2.12932497e-01, 2.58516461e-01, 5.28202832e-01,
          5.28202832e-01, 2.28761524e-01, 0., 0., 0., 1.89638227e-01,
          1.65311649e-01, 5.41286170e-01, 5.41286170e-01, 5.41286170e-01 ]
      - [ 5.86196959e-01, 1.68253377e-01, 5.04760146e-01, 0.,
          1.54275656e-01, 0., 0., 0., 5.86196959e-01, 4.68483686e-01,
          2.82646149e-01, 3.26742470e-01, 4.68483686e-01, 4.68483686e-01,
          0., 0., 1.19266801e-01, 3.68803114e-01, 4.02555287e-01,
          4.02555287e-01, 2.46503174e-01, 4.02555287e-01, 3.07446092e-01,
          1.74246877e-01, 8.70977435e-03, 4.02555287e-01, 4.02555287e-01,
          2.39945009e-01, 1.47438750e-01, 1.94545716e-01, 1.34665966e-01,
          3.44667405e-01, 4.30583477e-01, 4.30583477e-01, 4.30583477e-01,
          4.30583477e-01, 4.57301706e-01, 4.57301706e-01, 4.57301706e-01,
          4.57301706e-01, 2.21687723e-02, 8.97866711e-02, 9.68787670e-02,
          2.02392414e-02, 3.74946207e-01, 4.64639246e-01, 4.08157766e-01,
          2.43564248e-02, 1.30668089e-01, 4.25797164e-01, 4.64639246e-01,
          1.79645047e-01, 1.40403613e-01, 3.82139862e-01, 5.08799255e-01,
          4.52600300e-01, 5.12002446e-02, 6.07784167e-02, 5.08799255e-01,
          5.08799255e-01, 4.95078787e-02, 1.51076363e-02, 6.66829124e-02,
          9.93588865e-02, 1.11316510e-01, 9.36769322e-02, 1.81854665e-02,
          5.59241235e-01, 5.59241235e-01, 4.61102307e-01, 3.30380231e-01,
          1.25610024e-01, 4.46429253e-01, 2.12353602e-01, 4.84982103e-01,
          4.84982103e-01, 2.25794822e-01, 7.20739737e-02, 1.25907674e-01,
          1.11750342e-01, 4.42525566e-01, 1.75049409e-01, 2.02646088e-02,
          1.28113613e-01, 4.90801156e-01, 3.21250111e-01, 2.88219750e-01,
          1.96729153e-01, 4.90801156e-01, 4.90801156e-01, 7.67485946e-02,
          2.86920927e-02, 1.60528734e-01, 5.10829508e-01, 3.14961582e-01,
          2.83079475e-01, 1.54915936e-02, 5.10829508e-01, 5.10829508e-01,
          4.03248638e-01, 1.95192304e-02, 9.93635785e-03, 0.,
          8.03932399e-02, 1.10089339e-01, 0., 6.37168169e-01,
          6.37168169e-01, 4.12784308e-01, 2.79917002e-01, 4.12784308e-01,
          4.12784308e-01, 3.89595449e-01, 6.89014494e-02, 0.,
          2.81828821e-01, 4.12784308e-01, 4.81502622e-01, 5.14840335e-03,
          1.76906422e-01, 4.81502622e-01, 4.81502622e-01, 1.27213731e-01,
          1.67582592e-03, 1.42489016e-01, 4.81502622e-01, 3.09466660e-01,
          1.67421624e-01, 4.26525801e-01, 3.62512976e-01, 4.26525801e-01,
          1.13008700e-01, 7.49327242e-03, 4.26525801e-01, 4.26525801e-01,
          1.19593702e-01, 4.99025360e-02, 4.89086471e-02, 2.74729729e-02,
          4.85834926e-01, 1.76254317e-01, 4.85834926e-01, 4.85834926e-01,
          4.85834926e-01 ]
      - [ 5.47798038e-01, 1.51215084e-02, 0., 3.06680262e-01,
          5.47798038e-01, 0., 0., 0., 5.47798038e-01, 5.54106593e-01, 0.,
          4.97166207e-03, 2.70801425e-01, 5.54106593e-01, 2.52078148e-03,
          0., 0., 5.54106593e-01, 5.21995723e-01, 7.96443895e-02,
          2.08857387e-01, 3.29958051e-01, 5.21995723e-01, 7.17349723e-02,
          1.88017194e-03, 1.15594238e-01, 5.21995723e-01, 5.55173934e-01,
          9.16939043e-03, 3.92805934e-02, 2.31859654e-01, 3.39985728e-01,
          8.43146965e-02, 2.47843610e-03, 3.73057663e-01, 6.07007205e-01,
          1.59429938e-01, 4.84191533e-03, 0., 3.76444042e-01,
          8.60318959e-01, 0., 0., 0., 2.90025979e-01, 1.22844152e-01,
          5.54589689e-01, 2.44525373e-01, 4.94531512e-01, 5.54589689e-01,
          1.71640376e-03, 0., 0., 2.44693339e-01, 1.26354560e-01,
          4.09706414e-01, 4.09706414e-01, 3.52434665e-01, 4.09706414e-01,
          4.09706414e-01, 4.09706414e-01, 2.40168758e-02, 1.25928551e-01,
          6.99620843e-02, 7.45809600e-02, 4.93048280e-02, 4.42421198e-01,
          4.42421198e-01, 4.42421198e-01, 4.42421198e-01, 6.33248314e-02,
          4.42421198e-01, 5.84804237e-01, 0., 0., 2.20316857e-01,
          5.11222601e-01, 8.53758131e-04, 0., 1.67260226e-02,
          5.84804237e-01, 5.28841019e-01, 5.28841019e-01, 2.22445816e-01,
          5.91528565e-02, 2.94170409e-01, 6.16599619e-02, 1.03377119e-01,
          4.11562249e-02, 5.28841019e-01, 4.11586851e-01, 4.11586851e-01,
          7.27576613e-02, 1.61480084e-02, 1.15471072e-01, 4.11586851e-01,
          4.11586851e-01, 3.60529751e-01, 4.11586851e-01, 4.85882521e-01,
          1.27178673e-02, 1.18729644e-04, 4.77061346e-02, 2.13629410e-01,
          3.99022996e-01, 4.85882521e-01, 2.82147229e-01, 4.85882521e-01,
          2.03231618e-01, 0., 0., 5.63582122e-01, 5.63582122e-01,
          3.06588435e-03, 0., 1.36150252e-02, 5.63582122e-01,
          4.60963815e-01, 9.92093533e-02, 2.34717309e-01, 4.71361697e-01,
          4.71361697e-01, 3.67504150e-01, 1.83730889e-02, 2.35132761e-02,
          3.70885789e-01, 3.10233325e-01, 5.84433936e-02, 4.24869172e-02,
          4.62780714e-01, 4.62780714e-01, 4.62780714e-01, 1.00902744e-01,
          1.86224401e-01, 4.54481393e-01, 4.46358174e-01, 0., 0.,
          2.46870816e-01, 4.46358174e-01, 4.37382847e-01, 3.55417490e-01,
          1.38794988e-01, 4.46358174e-01 ]
      - [ 5.51905632e-01, 6.77980930e-02, 0., 4.94332612e-02,
          5.51905632e-01, 2.71314025e-01, 6.13895524e-03, 0.,
          5.51905632e-01, 5.63368559e-01, 8.52896424e-04, 0.,
          2.04744950e-01, 5.63368559e-01, 1.73358191e-02, 0., 0.,
          5.63368559e-01, 6.06849134e-01, 4.36172727e-03, 0.,
          2.03908667e-01, 4.64504182e-01, 2.42902292e-03, 0.,
          6.42439723e-03, 6.06849134e-01, 6.77559137e-01, 0., 0.,
          1.37377381e-01, 1.69122130e-01, 6.22307835e-03, 0.,
          1.65980533e-01, 6.77559137e-01, 5.22588670e-01, 4.41861823e-02,
          0., 9.23815444e-02, 5.22588670e-01, 5.22588670e-01,
          3.04074287e-01, 2.23948881e-02, 2.68392801e-01, 3.36436659e-01,
          1.01574999e-03, 0., 5.92794359e-01, 5.92794359e-01,
          4.75525931e-02, 0., 0., 4.19307411e-01, 2.16818124e-01,
          3.75114963e-03, 0., 5.61948359e-01, 5.61948359e-01,
          2.08899542e-03, 0., 1.45526626e-03, 5.61948359e-01,
          2.22768292e-01, 1.02052838e-01, 2.66544700e-01, 5.28172910e-01,
          5.28172910e-01, 1.30408583e-02, 0., 1.62999168e-01,
          5.28172910e-01, 6.01460576e-01, 7.81651679e-03, 4.47492450e-02,
          2.27031142e-01, 4.49608564e-01, 5.72257824e-02, 4.93001491e-02,
          9.49997306e-02, 6.01460576e-01, 6.47326410e-01, 0., 0.,
          3.65762487e-02, 3.91871661e-01, 2.39404123e-02, 0., 0.,
          6.47326410e-01, 5.99839866e-01, 8.57624412e-02, 0.,
          1.78581905e-02, 4.75510359e-01, 2.01304764e-01, 0.,
          9.32976045e-03, 5.99839866e-01, 4.74186271e-01, 4.74186271e-01,
          2.03568250e-01, 1.92336082e-01, 4.74186271e-01, 4.74186271e-01,
          0., 6.43084291e-03, 1.31828502e-01, 3.39668989e-01,
          5.33864973e-03, 3.05635557e-02, 5.40965140e-01, 5.40965140e-01,
          9.39214416e-03, 0., 1.55595690e-02, 5.40965140e-01,
          5.39452434e-01, 0., 0., 2.89624751e-01, 5.39452434e-01,
          1.94173679e-01, 0., 0., 5.39452434e-01, 5.49888313e-01,
          1.66833401e-02, 0., 4.15758230e-02, 5.49888313e-01,
          5.49888313e-01, 0., 6.99039316e-03, 2.92098641e-01,
          5.72862148e-01, 9.53323692e-02, 0., 0., 5.72862148e-01,
          5.72862148e-01, 0., 1.15862936e-02, 2.33243238e-02 ]
      - [ 4.10808116e-01, 4.47907507e-01, 4.47907507e-01, 0.,
          2.62991805e-03, 9.96332988e-02, 4.47907507e-01, 4.47907507e-01,
          1.19768433e-01, 5.48046529e-01, 4.48864490e-01, 0., 0.,
          1.56105578e-01, 4.56122816e-01, 1.82802811e-01, 6.15654886e-02,
          4.72301483e-01, 4.91641194e-01, 4.91641194e-01, 0.,
          1.98323047e-03, 4.10490066e-01, 4.91641194e-01, 1.68075645e-03,
          0., 3.18508625e-01, 3.93113136e-01, 3.93113136e-01,
          3.93113136e-01, 1.91001698e-01, 3.93113136e-01, 3.93113136e-01,
          3.06240708e-01, 2.41298452e-01, 1.86796486e-01, 3.54445934e-01,
          3.54445934e-01, 3.54445934e-01, 1.31499588e-01, 3.54445934e-01,
          3.54445934e-01, 3.54445934e-01, 3.54445934e-01, 3.15821379e-01,
          5.46322763e-01, 2.91627616e-01, 0., 0., 5.46322763e-01,
          5.46322763e-01, 4.03993949e-02, 6.50016367e-02, 9.07443240e-02,
          5.68442702e-01, 1.55067816e-01, 0., 2.96009297e-04,
          5.68442702e-01, 5.68442702e-01, 9.61677404e-04, 0.,
          2.99234875e-02, 2.93586887e-02, 4.90968913e-01, 4.90968913e-01,
          5.78192472e-02, 3.71272922e-01, 3.45528990e-01, 4.90968913e-01,
          1.02499217e-01, 0., 1.39485346e-02, 4.21874262e-02,
          5.11736512e-01, 5.11736512e-01, 1.98105633e-01, 1.37057528e-01,
          2.52574325e-01, 5.11736512e-01, 2.92348504e-01, 1.08833082e-01,
          0., 6.54351264e-02, 1.07214473e-01, 3.97978008e-01,
          2.43471146e-01, 2.55491793e-01, 5.84636748e-01, 5.84636748e-01,
          6.28831565e-01, 4.30018127e-01, 0., 0., 1.15751378e-01,
          1.54425204e-02, 0., 6.56582266e-02, 6.28831565e-01,
          3.73942792e-01, 4.99028295e-01, 4.99028295e-01, 0.,
          1.78720970e-02, 3.26708823e-01, 4.99028295e-01, 2.94329189e-02,
          1.30690513e-02, 0., 4.97375280e-02, 5.40640473e-01,
          5.40640473e-01, 2.12060377e-01, 6.74264459e-03, 4.50936379e-03,
          4.97296810e-01, 3.39416444e-01, 1.72397569e-01, 0.,
          5.61783463e-02, 4.90288645e-01, 4.90288645e-01, 2.60526501e-02,
          3.95989558e-03, 4.90288645e-01, 4.90288645e-01, 4.87922907e-01,
          1.55863211e-01, 0., 1.29304245e-01, 4.87922907e-01,
          4.87922907e-01, 1.50957087e-03, 4.28533480e-02, 4.87922907e-01,
          4.76379007e-01, 4.76379007e-01, 7.55045265e-02, 0.,
          4.06623304e-01, 4.76379007e-01, 3.75613958e-01, 4.30226373e-03,
          4.77833897e-02 ]
      - [ 6.72267854e-01, 5.67487955e-01, 0., 0., 0., 0., 0., 0.,
          4.68297064e-01, 6.99841559e-01, 6.01191632e-02, 0.,
          1.00363116e-03, 8.68744850e-02, 4.27402928e-02, 7.23021431e-03,
          2.03920361e-02, 6.99841559e-01, 6.30306304e-01, 0., 0.,
          5.50111458e-02, 4.33758765e-01, 2.03234013e-02, 2.00068206e-03,
          8.68610293e-02, 6.30306304e-01, 4.90633070e-01, 0., 0.,
          4.43620868e-02, 1.48352653e-01, 0., 4.36622277e-03,
          6.03843629e-01, 6.03843629e-01, 4.87025023e-01, 4.87025023e-01,
          1.80482313e-01, 1.20959751e-01, 4.72103953e-01, 4.87025023e-01,
          1.79650225e-02, 0., 1.14654012e-01, 3.81887913e-01,
          1.69326678e-01, 3.81887913e-01, 1.62726879e-01, 3.81887913e-01,
          2.89086670e-01, 3.81887913e-01, 3.81887913e-01, 3.58148277e-01,
          3.89625251e-01, 5.98053914e-04, 1.25636565e-04, 3.80897075e-01,
          4.16515410e-01, 7.07664713e-02, 4.16515410e-01, 4.16515410e-01,
          4.16515410e-01, 3.12148541e-01, 3.03301930e-01, 3.72424006e-01,
          4.08539921e-01, 4.08539921e-01, 0., 1.30746262e-02,
          4.08539921e-01, 4.08539921e-01, 9.36654955e-02, 4.89131659e-01,
          4.89131659e-01, 1.31528735e-01, 4.89131659e-01, 4.89131659e-01,
          1.09280333e-01, 0., 1.00210207e-02, 5.00585139e-02,
          4.48878735e-01, 4.48878735e-01, 1.02330193e-01, 2.66996801e-01,
          2.91292548e-01, 4.48878735e-01, 4.48878735e-01, 1.42940074e-01,
          4.22137350e-01, 4.74164868e-03, 5.14312414e-03, 2.73493268e-02,
          4.22137350e-01, 3.22469175e-01, 4.22137350e-01, 4.22137350e-01,
          4.22137350e-01, 4.56387103e-01, 4.56387103e-01, 1.88300312e-01,
          1.85214311e-01, 4.56387103e-01, 4.56387103e-01, 3.29791359e-03,
          6.39017811e-03, 3.04091394e-01, 1.79986786e-02, 4.98122275e-01,
          4.98122275e-01, 4.98122275e-01, 4.98122275e-01, 4.63342220e-02,
          7.14988820e-03, 0., 0., 1.17358472e-02, 3.65974128e-01,
          4.15131480e-01, 4.15131480e-01, 4.15131480e-01, 4.15131480e-01,
          4.15131480e-01, 6.64162077e-03, 7.96339102e-03, 1.30583018e-01,
          5.48188749e-04, 1.64456642e-03, 0., 6.55708015e-01,
          6.55708015e-01, 3.24124426e-01, 1.26246847e-02, 1.06192254e-01,
          1.50622591e-01, 0., 0., 1.52764888e-03, 6.95501983e-01,
          6.95501983e-01, 0., 0., 5.40526696e-02 ]
      - [ 4.83670056e-01, 4.83670056e-01, 4.83670056e-01, 4.02581990e-02,
          2.02984393e-01, 9.98427719e-02, 8.12946931e-02, 4.63858526e-03,
          4.83670056e-01, 6.24314785e-01, 0., 2.25435831e-02,
          2.74820060e-01, 3.62171024e-01, 4.58560586e-02, 1.57464705e-02,
          6.83798864e-02, 6.24314785e-01, 5.88650346e-01, 0.,
          1.06419595e-02, 1.16367713e-01, 1.43985078e-01, 1.93765312e-02,
          0., 1.33557707e-01, 7.70197511e-01, 6.59897029e-01, 0., 0.,
          9.42465756e-03, 1.60140414e-02, 0., 0., 2.05465615e-01,
          7.17504382e-01, 1.27658963e-01, 2.91642100e-01, 4.72695351e-01,
          2.08606005e-01, 3.39392483e-01, 2.26220891e-01, 4.72695351e-01,
          4.72695351e-01, 1.17151111e-01, 7.51197264e-02, 1.17100060e-01,
          3.96273822e-01, 3.96273822e-01, 3.96273822e-01, 2.09068537e-01,
          3.96273822e-01, 3.96273822e-01, 3.84462506e-01, 9.26803201e-02,
          9.44429543e-03, 2.64716148e-01, 4.13081080e-01, 4.13081080e-01,
          2.52863735e-01, 4.13081080e-01, 4.13081080e-01, 4.13081080e-01,
          2.49095440e-01, 0., 0., 5.54264188e-01, 5.54264188e-01,
          9.28707886e-03, 5.87099604e-03, 1.03293523e-01, 5.54264188e-01,
          3.08246708e-05, 1.11180380e-01, 5.35643756e-01, 3.48581105e-01,
          3.79368127e-03, 4.37512435e-03, 5.35643756e-01, 5.35643756e-01,
          2.17968062e-03, 2.51143956e-06, 3.19197714e-01, 5.28423071e-01,
          2.34296545e-01, 1.32272290e-02, 8.53974279e-03, 5.28423071e-01,
          5.28423071e-01, 1.77589449e-04, 0., 1.27996936e-01,
          5.49755454e-01, 1.57053530e-01, 2.13954061e-01, 3.14892903e-02,
          5.49755454e-01, 5.49755454e-01, 0., 1.51328547e-02, 0., 0.,
          6.60439432e-01, 6.60439432e-01, 6.29500533e-03, 2.78384835e-01,
          2.04370081e-01, 3.88871394e-02, 0., 6.36914521e-02,
          4.64162827e-01, 4.64162827e-01, 4.46658820e-01, 2.23315179e-01,
          4.64162827e-01, 3.09179485e-01, 0., 0., 3.22533935e-01,
          4.84084845e-01, 3.21648568e-01, 1.86673120e-01, 2.23199025e-01,
          4.84084845e-01, 4.84084845e-01, 0., 0., 1.30338252e-01,
          5.60943484e-01, 1.76739216e-01, 4.69144508e-02, 0.,
          5.60943484e-01, 5.60943484e-01, 0., 0., 0., 0., 0., 0., 0.,
          7.04615593e-01, 7.04615593e-01, 0. ]
      - [ 5.50794423e-01, 3.08676153e-01, 4.33057517e-01, 3.05004269e-01,
          8.11431706e-02, 2.48137582e-02, 6.85807019e-02, 0.,
          5.50794423e-01, 4.96456623e-01, 1.77840069e-02, 5.73253110e-02,
          4.96456623e-01, 4.96456623e-01, 8.20193999e-03, 6.92999065e-02,
          2.63161007e-02, 4.96456623e-01, 4.41126972e-01, 6.02138825e-02,
          1.47562951e-01, 4.41126972e-01, 4.41126972e-01, 1.46874459e-03,
          2.11007930e-02, 4.37462777e-01, 4.41126972e-01, 3.88422310e-01,
          1.68610543e-01, 2.27070376e-01, 4.27239269e-01, 3.91153604e-01,
          3.29188351e-03, 8.72840546e-03, 4.63082373e-01, 4.63082373e-01,
          3.94188166e-01, 1.27097413e-01, 4.15379167e-01, 5.12790501e-01,
          4.70664889e-01, 6.45566508e-02, 2.36162871e-01, 1.18510202e-01,
          3.03868830e-01, 3.34082246e-01, 0., 7.86198676e-02,
          4.55757111e-01, 4.55757111e-01, 2.59906761e-02, 2.14759976e-01,
          4.55757111e-01, 4.55757111e-01, 3.42891961e-01, 2.25198064e-02,
          1.82615798e-02, 2.11105749e-01, 5.88419795e-01, 8.16261675e-03,
          0., 3.72291595e-01, 5.88419795e-01, 2.51795173e-01,
          6.72842711e-02, 7.36146122e-02, 3.12030882e-01, 7.58162916e-01,
          1.30127752e-02, 1.32238977e-02, 2.26586074e-01, 4.41843837e-01,
          4.92676646e-01, 0., 1.91586688e-02, 4.92676646e-01,
          4.92676646e-01, 0., 6.95235003e-03, 1.54087171e-01,
          4.92676646e-01, 4.87747639e-01, 0., 5.97865172e-02,
          4.87747639e-01, 4.55871344e-01, 0., 8.66820943e-03,
          2.64512599e-01, 4.87747639e-01, 2.87239909e-01, 8.38222355e-02,
          1.10515244e-01, 5.01645803e-01, 3.71802598e-01, 0.,
          7.78789446e-03, 5.01645803e-01, 5.01645803e-01, 1.95873097e-01,
          2.30454966e-01, 1.61504269e-01, 2.40668133e-01, 2.46727332e-01,
          1.34169497e-02, 6.07343279e-02, 6.13859594e-01, 6.13859594e-01,
          3.38701755e-01, 0., 0., 5.41323125e-01, 5.41323125e-01, 0., 0.,
          2.79834233e-02, 5.41323125e-01, 4.46068406e-01, 0.,
          3.68310633e-04, 5.15066028e-01, 5.15066028e-01, 0., 0., 0.,
          5.15066028e-01, 5.32359660e-01, 9.71811190e-02, 7.58081526e-02,
          3.55605930e-01, 5.32359660e-01, 3.97138894e-02, 2.37819157e-03,
          3.51224653e-02, 5.32359660e-01, 1.40110627e-01, 1.44901603e-01,
          9.29676071e-02, 7.16386735e-02, 4.81259197e-01, 4.54247117e-01,
          1.99045017e-01, 4.81259197e-01, 4.81259197e-01 ]
      - [ 6.29729211e-01, 1.00363031e-01, 4.57079336e-02, 2.22897083e-02,
          3.23090196e-01, 2.89040506e-01, 2.10067490e-03, 0.,
          6.29729211e-01, 6.37488544e-01, 5.52585348e-03, 1.29907578e-01,
          6.02517985e-02, 3.63223761e-01, 1.59520030e-01, 4.45701480e-02,
          3.08330618e-02, 6.37488544e-01, 5.70284545e-01, 4.31115972e-04,
          2.78888736e-03, 8.80190209e-02, 5.70284545e-01, 9.73294824e-02,
          1.33300377e-02, 3.50106172e-02, 5.70284545e-01, 5.72388113e-01,
          0., 0., 6.36385977e-02, 5.72388113e-01, 2.86126938e-02,
          7.17602298e-02, 3.71733420e-02, 5.72388113e-01, 3.69769990e-01,
          3.69769990e-01, 3.69769990e-01, 7.76264668e-02, 3.69769990e-01,
          3.69769990e-01, 3.69769990e-01, 3.69769990e-01, 1.82128891e-01,
          3.84127468e-01, 3.91747594e-01, 3.91747594e-01, 1.36577368e-01,
          3.91747594e-01, 3.91747594e-01, 3.91747594e-01, 9.74125490e-02,
          2.30345115e-01, 2.93909431e-01, 4.47939429e-03, 1.11560803e-02,
          2.66530186e-01, 5.07464349e-01, 4.68076080e-01, 4.71063823e-01,
          4.84701097e-02, 3.69460016e-01, 4.23642874e-01, 5.27851403e-01,
          1.33114576e-01, 3.19606930e-01, 5.27851403e-01, 6.85958415e-02,
          7.04236701e-02, 3.21080238e-02, 3.56983215e-01, 3.47505420e-01,
          3.67309093e-01, 3.67309093e-01, 3.67309093e-01, 3.67309093e-01,
          1.29267424e-01, 2.22180724e-01, 3.67309093e-01, 3.67309093e-01,
          1.32438913e-01, 4.12236512e-01, 4.12236512e-01, 3.97433966e-01,
          2.99764246e-01, 9.89073366e-02, 4.12236512e-01, 4.12236512e-01,
          2.02462718e-01, 4.41308469e-01, 4.41308469e-01, 4.49895710e-02,
          2.61334945e-02, 1.20203033e-01, 6.83384687e-02, 4.41308469e-01,
          4.41308469e-01, 4.41308469e-01, 5.25290310e-01, 5.25290310e-01,
          3.82788666e-02, 7.80124776e-03, 1.78918868e-01, 5.25290310e-01,
          3.65075767e-01, 0., 1.20753404e-02, 6.79485574e-02,
          2.88698394e-02, 2.70009279e-01, 6.63295090e-01, 6.63295090e-01,
          1.23850830e-01, 8.59634764e-03, 4.96122688e-02, 1.31254077e-01,
          1.05266403e-02, 1.23271765e-02, 4.53858048e-01, 5.03953278e-01,
          5.03953278e-01, 1.11737465e-02, 3.24399769e-02, 4.31865215e-01,
          3.05113643e-01, 4.20920193e-01, 2.09954545e-01, 1.64376665e-02,
          4.20920193e-01, 4.20920193e-01, 4.20920193e-01, 2.14281380e-02,
          2.55177975e-01, 4.20920193e-01, 4.66228276e-01, 4.76295173e-01,
          9.60568432e-04, 7.94767111e-04, 3.57902199e-01, 5.38972795e-01,
          3.61877382e-01, 0., 2.91406121e-02 ]
      - [ 4.56508726e-01, 4.56508726e-01, 4.56508726e-01, 3.86576295e-01,
          4.36829738e-02, 0., 0., 1.02419376e-01, 4.56508726e-01,
          5.22974908e-01, 7.59175718e-02, 7.09271133e-02, 1.41566098e-01,
          6.53723106e-02, 0., 0., 5.85466743e-01, 5.85466743e-01,
          5.50300539e-01, 2.93278992e-01, 0., 0., 0., 0., 0.,
          5.50300539e-01, 5.50300539e-01, 6.50177419e-01, 6.50177419e-01,
          0., 0., 1.03521951e-01, 1.24637023e-01, 0., 0., 3.48993421e-01,
          4.19743061e-01, 3.39269698e-01, 4.19743061e-01, 4.19743061e-01,
          4.14949238e-01, 5.80077842e-02, 0., 2.04546973e-02,
          4.19743061e-01, 3.87574852e-01, 2.90234417e-01, 3.87574852e-01,
          3.87574852e-01, 3.87574852e-01, 9.72756147e-02, 3.38209197e-02,
          3.87574852e-01, 3.87574852e-01, 4.54103440e-01, 1.82768762e-01,
          2.44328529e-02, 4.63811681e-02, 3.51745218e-01, 4.54103440e-01,
          1.59820944e-01, 4.37509179e-01, 4.54103440e-01, 4.97893780e-01,
          4.97893780e-01, 0., 0., 4.97893780e-01, 4.97893780e-01,
          1.55447132e-03, 3.65753286e-03, 5.84692918e-02, 5.17901361e-01,
          6.13444373e-02, 9.39733312e-02, 2.07626492e-01, 5.17901361e-01,
          5.17901361e-01, 0., 0., 3.66686851e-01, 3.03495973e-01,
          1.23324499e-01, 4.35649931e-01, 4.74603415e-01, 4.74603415e-01,
          4.74603415e-01, 7.76384249e-02, 8.91820937e-02, 9.17792916e-02,
          1.54857203e-01, 2.29321942e-02, 3.70275229e-01, 3.93015236e-01,
          3.41086328e-01, 3.93015236e-01, 3.16669703e-01, 3.93015236e-01,
          3.93015236e-01, 3.13206732e-01, 1.34344562e-03, 2.00638385e-03,
          1.05433978e-01, 4.54546839e-01, 4.54546839e-01, 2.44515583e-01,
          4.54546839e-01, 4.54546839e-01, 0., 0., 0., 1.54391631e-01,
          7.69258618e-01, 6.13780797e-01, 0., 0., 0., 9.01780929e-03,
          7.60184601e-02, 5.69770455e-01, 5.69770455e-01, 5.69770455e-01,
          1.20562598e-01, 0., 0., 0., 2.74220929e-02, 1.31351845e-02,
          3.28369319e-01, 5.89023232e-01, 5.89023232e-01, 0., 0.,
          1.89389139e-01, 3.94464970e-01, 9.50247124e-02, 5.86790266e-04,
          1.69012602e-03, 4.34929520e-01, 4.34929520e-01, 3.87434900e-01,
          4.34929520e-01, 2.82598525e-01, 4.34929520e-01 ]
      - [ 5.92848063e-01, 5.92848063e-01, 1.23581551e-02, 0.,
          9.62797645e-03, 1.89672248e-03, 0., 0., 5.39345622e-01,
          6.02985799e-01, 4.95158851e-01, 1.85234146e-03, 3.95227270e-03,
          1.46366268e-01, 1.30880084e-02, 0., 0., 6.02985799e-01,
          6.99751437e-01, 0., 0., 1.20914411e-02, 1.07794002e-01,
          8.91051022e-04, 0., 4.40906174e-02, 6.99751437e-01,
          5.75341523e-01, 0., 0., 3.12104239e-04, 2.99186772e-03, 0.,
          3.45286876e-02, 5.75341523e-01, 5.75341523e-01, 5.01685619e-01,
          5.01685619e-01, 6.60576820e-02, 0., 4.15758222e-01,
          5.01685619e-01, 1.54242292e-01, 1.69756904e-03, 1.97261721e-01,
          5.20843565e-01, 2.55502760e-01, 3.96026706e-04, 1.11323528e-01,
          5.20843565e-01, 5.20843565e-01, 5.45280892e-03, 0.,
          3.21341008e-01, 2.96467602e-01, 0., 0., 5.48954904e-01,
          5.48954904e-01, 3.01565398e-02, 0., 4.07578386e-02,
          5.48954904e-01, 2.59348989e-01, 0., 6.46646470e-02,
          4.80483532e-01, 4.80483532e-01, 1.52726192e-02, 8.15688539e-03,
          4.80483532e-01, 4.80483532e-01, 2.48424392e-02, 1.89019322e-01,
          4.33467627e-01, 4.16168422e-02, 1.34616718e-01, 4.33467627e-01,
          4.33467627e-01, 4.33467627e-01, 4.33467627e-01, 1.14703213e-03,
          0., 0., 6.71307892e-02, 4.93600935e-01, 4.93600935e-01,
          1.74217552e-01, 4.93600935e-01, 4.78836983e-01, 0., 0., 0.,
          7.04380333e-01, 7.04380333e-01, 2.57924050e-02, 0., 0., 0.,
          4.56548743e-02, 6.89408109e-02, 6.45226300e-01, 6.45226300e-01,
          3.76149952e-01, 6.65912684e-03, 3.30700679e-03, 8.79570246e-02,
          6.93292022e-02, 0., 1.13327021e-03, 3.77251297e-01,
          3.77251297e-01, 3.77251297e-01, 3.77251297e-01, 3.77251297e-01,
          3.77251297e-01, 3.77251297e-01, 0., 0., 0., 4.44036052e-02,
          1.98699757e-01, 5.31899810e-01, 5.31899810e-01, 5.31899810e-01,
          3.23237658e-01, 0., 0., 0., 0., 0., 0., 0., 0., 0.,
          4.26186947e-04, 6.24004185e-01, 6.25648439e-01, 4.02091861e-01,
          2.26402342e-01, 0., 0., 0., 4.26186947e-04 ]
      - [ 7.04615593e-01, 0., 0., 0., 0., 0., 0., 0., 7.04615593e-01,
          7.04615593e-01, 0., 0., 0., 0., 0., 0., 0., 7.04615593e-01,
          7.04615593e-01, 0., 0., 0., 0., 0., 0., 0., 7.04615593e-01, 0.,
          0., 0., 0., 0., 0., 0., 0., 0., 4.57107544e-01, 4.57107544e-01,
          1.75743520e-01, 8.31698105e-02, 6.19376786e-02, 4.57107544e-01,
          3.37380260e-01, 6.46543428e-02, 4.57107544e-01, 4.17010546e-01,
          1.99530825e-01, 6.76171407e-02, 4.17010546e-01, 3.99813026e-01,
          3.62671673e-01, 7.69530088e-02, 3.63941073e-01, 4.17010546e-01,
          4.99726117e-01, 1.22418866e-01, 1.77862823e-01, 3.33000422e-01,
          4.39752460e-01, 1.82959020e-01, 4.39264290e-02, 3.30545157e-01,
          4.99726117e-01, 4.99429792e-01, 0., 1.07754441e-02,
          3.85924637e-01, 4.83050972e-01, 3.51745598e-02, 3.58152646e-03,
          3.35424662e-01, 4.99429792e-01, 2.92737544e-01, 3.53673875e-01,
          3.53673875e-01, 3.53673875e-01, 3.53673875e-01, 3.53673875e-01,
          3.53673875e-01, 1.87549338e-01, 3.53673875e-01, 4.03797209e-01,
          3.40572387e-01, 1.75426647e-01, 3.65451425e-01, 4.03797209e-01,
          4.03797209e-01, 2.27229476e-01, 1.08652361e-01, 4.03797209e-01,
          3.03052574e-01, 3.35139245e-01, 2.26483867e-01, 2.23605350e-01,
          4.42650229e-01, 4.42650229e-01, 4.05841440e-01, 6.38691336e-02,
          3.59805495e-01, 2.08718851e-01, 0., 1.20281316e-02,
          5.47089636e-01, 5.47089636e-01, 1.40275687e-01, 3.06822639e-02,
          1.79690167e-01, 5.47089636e-01, 0., 2.12229099e-02,
          1.36842251e-01, 6.96910739e-01, 6.96910739e-01, 0.,
          4.74129356e-02, 1.58043131e-02, 0., 0., 2.88648214e-02,
          9.64606851e-02, 3.78294811e-02, 9.53699708e-01, 2.23592177e-01,
          1.33612186e-01, 3.90892141e-02, 0., 0., 1.37855057e-02,
          4.13565151e-02, 0., 6.73169076e-01, 6.73169076e-01,
          2.91660994e-01, 0., 0., 0., 0., 0., 0., 9.91451204e-01,
          5.84995113e-02, 6.09285645e-02, 0., 0. ]
      - [ 1.06086329e-01, 4.18754637e-01, 4.55754578e-01, 4.55754578e-01,
          2.45872512e-02, 0., 1.30197899e-02, 4.30031747e-01,
          4.55754578e-01, 4.26302403e-02, 2.33223233e-02, 2.56883442e-01,
          5.51207721e-01, 7.17751589e-03, 0., 1.20846510e-01,
          5.51207721e-01, 5.51207721e-01, 5.57565629e-01, 3.34381759e-02,
          8.88785534e-03, 3.47596928e-02, 0., 0., 2.43697762e-01,
          5.57565629e-01, 5.57565629e-01, 6.38152063e-01, 4.61720318e-01,
          0., 0., 0., 0., 0., 0., 6.10905051e-01, 5.46459734e-01,
          2.95383692e-01, 5.46459734e-01, 5.46459734e-01, 0., 0.,
          1.72045473e-02, 3.74409556e-02, 9.86861438e-02, 4.18546915e-01,
          3.43100488e-01, 4.18546915e-01, 4.18546915e-01, 3.29023898e-02,
          2.56798286e-02, 2.12436579e-02, 4.18546915e-01, 4.18546915e-01,
          5.00497639e-01, 1.90010041e-01, 1.95043892e-01, 2.07980603e-01,
          2.35214368e-01, 1.70199275e-01, 2.04480499e-01, 5.00497639e-01,
          5.00497639e-01, 5.27801573e-01, 3.51996094e-01, 0.,
          2.88730883e-03, 5.27801573e-01, 5.27801573e-01, 7.66870305e-02,
          6.25670850e-02, 1.59060925e-01, 5.69581091e-01, 5.69581091e-01,
          8.51537101e-03, 3.23439785e-03, 1.08493462e-01, 5.69581091e-01,
          2.65394002e-02, 0., 9.21211690e-02, 4.91374642e-01,
          4.91374642e-01, 1.30777925e-01, 1.06481262e-01, 4.91374642e-01,
          4.91374642e-01, 8.02272372e-03, 1.16833895e-02, 2.55795270e-02,
          2.44599774e-01, 6.17704950e-02, 2.74102956e-01, 4.32092756e-01,
          4.32092756e-01, 4.32092756e-01, 3.00707221e-01, 4.09940034e-01,
          1.95751041e-01, 8.30097273e-02, 3.84448003e-03, 1.21067636e-01,
          4.29025948e-01, 4.29025948e-01, 4.29025948e-01, 2.32024178e-01,
          4.29025948e-01, 4.29025948e-01, 5.07098258e-01, 3.77364337e-01,
          7.83352628e-02, 1.28892079e-01, 4.82127637e-01, 5.76053321e-01,
          8.07914734e-02, 0., 3.36743407e-02, 9.12766382e-02,
          6.37582019e-02, 0., 1.96372271e-02, 6.98417604e-01,
          6.98417604e-01, 6.83490708e-02, 0., 0., 0., 2.39529628e-02,
          6.49872005e-01, 6.49872005e-01, 2.97092468e-01, 2.05671668e-01,
          0., 1.25764936e-01, 4.34684046e-02, 2.09742524e-02,
          6.49512280e-03, 4.66011047e-01, 4.66011047e-01, 3.42270017e-01,
          9.50787291e-02, 3.04447697e-03, 4.66011047e-01, 4.66011047e-01 ]
      - [ 0., 0., 0., 0., 0., 0., 0., 0., 0., 0., 0., 0., 0., 0., 0., 0.,
          0., 0., 0., 0., 0., 0., 0., 0., 0., 0., 0., 0., 0., 0., 0., 0.,
          0., 0., 0., 0., 5.67202926e-01, 1.56334385e-01, 1.61816832e-02,
          2.96303369e-02, 5.67202926e-01, 5.99873774e-02, 0., 0.,
          5.67202926e-01, 5.74285269e-01, 0., 0., 6.95428923e-02,
          5.74285269e-01, 4.28479724e-03, 0., 0., 5.74285269e-01,
          5.80408931e-01, 0., 0., 4.12032045e-02, 5.64317524e-01,
          1.74186341e-02, 0., 0., 5.80408931e-01, 5.96168697e-01, 0., 0.,
          3.57527402e-03, 4.84622002e-01, 2.19867721e-01, 0., 0.,
          5.96168697e-01, 6.01994336e-01, 9.92824137e-02, 3.93943712e-02,
          7.21351802e-02, 6.01994336e-01, 1.46039501e-01, 0., 0.,
          4.80889648e-01, 5.01477420e-01, 0., 0., 1.65973052e-01,
          5.97870827e-01, 1.02262199e-02, 0., 0., 5.97870827e-01,
          4.99601334e-01, 0., 0., 9.15483609e-02, 6.05998695e-01,
          3.87020260e-02, 0., 0., 6.05998695e-01, 5.36982298e-01, 0., 0.,
          7.81699549e-03, 5.36982298e-01, 4.80719835e-01, 0., 0.,
          4.32186097e-01, 0., 0., 0., 0., 9.95024860e-01, 0., 0., 0., 0.,
          0., 0., 0., 0., 9.95024860e-01, 0., 0., 0., 0., 0., 0., 0., 0.,
          9.95024860e-01, 0., 0., 0., 0., 0., 0., 0., 0., 9.95024860e-01,
          0., 0., 0., 0. ]
      - [ 6.03789985e-01, 2.35625476e-01, 1.60047308e-01, 4.05149013e-01,
          1.36947632e-01, 0., 0., 2.84878649e-02, 6.03789985e-01,
          7.01220691e-01, 0., 0., 2.96834670e-02, 1.74995456e-02, 0., 0.,
          9.16072726e-02, 7.01220691e-01, 7.04615593e-01, 0., 0., 0., 0.,
          0., 0., 0., 7.04615593e-01, 6.92892015e-01, 0., 0., 0., 0., 0.,
          1.56358629e-01, 9.18505937e-02, 6.92892015e-01, 4.90945965e-01,
          1.11205742e-01, 1.35856062e-01, 4.90945965e-01, 4.90945965e-01,
          0., 0., 1.26934880e-02, 4.90945965e-01, 4.94899899e-01, 0., 0.,
          4.94899899e-01, 4.94899899e-01, 5.65010421e-02, 1.04421504e-01,
          3.54582332e-02, 4.94899899e-01, 4.13708538e-01, 1.91048309e-02,
          7.99915940e-02, 4.13708538e-01, 4.13708538e-01, 1.11501165e-01,
          3.47702861e-01, 4.13708538e-01, 4.13708538e-01, 4.53148812e-01,
          5.50646745e-02, 4.71761972e-02, 3.68570536e-02, 4.53148812e-01,
          3.72974008e-01, 1.68441936e-01, 4.53148812e-01, 4.53148812e-01,
          5.55374444e-01, 0., 0., 2.57268429e-01, 5.55374444e-01,
          5.42638786e-02, 0., 0., 5.55374444e-01, 4.98728484e-01, 0., 0.,
          4.98728484e-01, 4.98728484e-01, 4.70761303e-03, 8.70030001e-03,
          7.90792576e-04, 4.98728484e-01, 2.41917059e-01, 9.77612734e-02,
          1.82500824e-01, 5.35120070e-01, 5.35120070e-01, 1.02263857e-02,
          6.66442290e-02, 1.72226280e-01, 5.35120070e-01, 3.33812416e-01,
          2.31274709e-01, 1.71738625e-01, 1.32790789e-01, 4.78626341e-01,
